\data\
ngram 1=44331

\1-grams:
-5.4796257	<unk>
0	<s>
-1.5651053	</s>
-2.1789117	The
-4.3108773	Fulton
-3.8025796	County
-4.42008	Grand
-5.1678615	Jury
-2.9631698	said
-3.9862578	Friday
-2.4727588	an
-4.566314	investigation
-1.4684553	of
-4.8977313	Atlanta's
-3.6451695	recent
-4.034574	primary
-3.8556166	election
-4.151113	produced
-5.1678615	"no
-5.353464	evidence"
-2.0405545	that
-2.932484	any
-5.044178	irregularities
-3.4990287	took
-4.3108773	place.
-3.9160433	jury
-3.8556166	further
-1.7180839	in
-5.353464	term-end
-5.353464	presentments
-1.2198128	the
-3.7377687	City
-4.6285195	Executive
-4.5119133	Committee,
-2.4784021	which
-2.6475685	had
-4.566314	over-all
-4.0700555	charge
-4.701148	election,
-5.353464	"deserves
-4.5119133	praise
-1.5950706	and
-4.6285195	thanks
-5.353464	Atlanta"
-2.040382	for
-4.0700555	manner
-2.2184203	was
-5.353464	conducted.
-5.353464	September-October
-4.198126	term
-2.6772077	been
-4.3108773	charged
-2.2953446	by
-4.78841	Superior
-3.9427826	Court
-3.9712772	Judge
-5.353464	Durwood
-5.353464	Pye
-1.6297992	to
-5.1678615	investigate
-4.1739836	reports
-3.6117425	possible
-5.353464	"irregularities"
-5.353464	hard-fought
-3.8336186	won
-5.353464	Mayor-nominate
-4.8977313	Ivan
-4.5119133	Allen
-5.044178	Jr&.
-5.1678615	"Only
-1.6655772	a
-4.5119133	relative
-4.8977313	handful
-2.9884617	such
-5.353464	received",
-3.4796143	said,
-5.353464	"considering
-4.3443174	widespread
-3.605355	interest
-3.4136815	number
-4.463574	voters
-3.8787882	size
-2.4204392	this
-5.1678615	city".
-2.3153632	it
-3.2355473	did
-3.5245848	find
-3.0056489	many
-4.5119133	Georgia's
-5.1678615	registration
-4.017864	laws
-4.8977313	"are
-5.353464	outmoded
-2.4676492	or
-4.701148	inadequate
-3.5406728	often
-5.353464	ambiguous".
-2.8100755	It
-4.2236896	recommended
-4.5119133	legislators
-3.9427826	act
-4.2508526	"to
-2.4106104	have
-2.9946332	these
-4.2508526	studied
-5.1678615	revised
-3.5040212	end
-5.353464	modernizing
-4.566314	improving
-4.701148	them".
-4.198126	grand
-4.78841	commented
-2.2135057	on
-2.8151848	other
-5.353464	topics,
-3.5517392	among
-3.0072455	them
-4.6285195	Atlanta
-4.78841	purchasing
-4.6285195	departments
-3.209297	well
-4.6285195	operated
-4.151113	follow
-3.9160433	generally
-4.129387	accepted
-4.5119133	practices
-5.353464	inure
-3.4096224	best
-3.2751863	both
-5.353464	governments".
-5.353464	#MERGER
-5.1678615	PROPOSED#
-3.8444784	However,
-4.198126	believes
-5.1678615	"these
-2.8865237	two
-4.78841	offices
-3.0136917	should
-2.211197	be
-4.380549	combined
-4.3443174	achieve
-3.7830548	greater
-5.044178	efficiency
-4.034574	reduce
-3.76437	cost
-5.353464	administration".
-5.353464	Purchasing
-4.8977313	Department,
-4.463574	"is
-4.42008	lacking
-4.380549	experienced
-4.78841	clerical
-4.3443174	personnel
-2.213763	as
-3.6738968	result
-3.5090714	city
-5.353464	policies".
-4.2236896	urged
-5.353464	"take
-4.2798285	steps
-5.353464	remedy"
-4.42008	problem.
-5.353464	Implementation
-4.2236896	automobile
-4.2798285	title
-3.7208986	law
-2.9433932	also
-5.044178	outgoing
-4.78841	jury.
-3.4843872	next
-4.1739836	Legislature
-5.353464	"provide
-4.6285195	enabling
-4.034574	funds
-5.353464	re-set
-3.8908548	effective
-4.0519524	date
-2.8926234	so
-4.6285195	orderly
-5.044178	implementation
-2.8877368	may
-5.353464	effected".
-5.353464	swipe
-2.3124464	at
-3.5245848	State
-5.1678615	Welfare
-5.1678615	Department's
-4.6285195	handling
-3.8025796	federal
-4.2236896	granted
-3.9427826	child
-4.2508526	welfare
-4.151113	services
-5.1678615	foster
-5.044178	homes.
-4.3108773	"This
-1.9429022	is
-2.6317866	one
-3.6382751	major
-4.463574	items
-3.6382751	general
-4.463574	assistance
-5.353464	program",
-2.603105	but
-3.9567964	Department
-5.044178	"has
-3.8126814	seen
-4.2798285	fit
-4.78841	distribute
-3.1520996	through
-2.666128	all
-4.3108773	counties
-3.2902682	state
-2.1817713	with
-4.42008	exception
-4.566314	County,
-4.78841	receives
-4.129387	none
-4.6285195	money.
-5.044178	jurors
-2.6224535	they
-4.198126	realize
-4.108696	"a
-5.044178	proportionate
-4.6285195	distribution
-3.3493607	might
-5.353464	disable
-3.374703	program
-2.9271305	our
-3.452029	less
-4.8977313	populous
-5.353464	counties".
-4.42008	Nevertheless,
-4.78841	"we
-3.7292519	feel
-3.6813855	future
-3.929207	receive
-2.9076226	some
-4.42008	portion
-3.7830548	available
-5.1678615	funds",
-3.5141811	said.
-5.353464	"Failure
-3.0008936	do
-2.4755712	will
-3.9427826	continue
-3.4990287	place
-5.353464	disproportionate
-5.353464	burden"
-5.1678615	taxpayers.
-5.353464	ordinary's
-3.9160433	court
-2.4313445	has
-3.1773841	under
-3.9032664	fire
-2.6603324	its
-4.3443174	appointment
-5.353464	appraisers,
-5.044178	guardians
-5.353464	administrators
-5.353464	awarding
-4.463574	fees
-5.353464	compensation.
-5.353464	#WARDS
-5.353464	PROTECTED#
-3.4990287	found
-4.8977313	incorporated
-2.8384094	into
-4.380549	operating
-4.78841	procedures
-5.353464	recommendations"
-4.034574	previous
-5.353464	juries,
-4.8977313	Bar
-4.034574	Association
-4.8977313	interim
-4.1739836	citizens
-4.78841	committee.
-5.1678615	"These
-4.42008	actions
-3.9862578	serve
-4.463574	protect
-3.5807054	fact
-3.7927074	effect
-5.353464	court's
-5.353464	wards
-2.4279597	from
-4.701148	undue
-4.151113	costs
-4.380549	appointed
-4.3443174	elected
-4.78841	servants
-5.353464	unmeritorious
-5.353464	criticisms",
-5.353464	Regarding
-2.8618007	new
-5.353464	multi-million-dollar
-5.353464	airport,
-4.701148	"that
-2.8110926	when
-4.42008	management
-3.8908548	takes
-4.3108773	Jan&
-3.7927074	1
-5.044178	airport
-4.42008	eliminate
-3.5406728	political
-5.353464	influences".
-2.4271176	not
-5.044178	elaborate,
-3.6890059	added
-4.78841	"there
-5.1678615	periodic
-5.353464	surveillance
-4.8977313	pricing
-5.353464	concessionaires
-4.088946	purpose
-4.42008	keeping
-4.129387	prices
-5.353464	reasonable".
-5.353464	#ASK
-5.353464	JAIL
-5.353464	DEPUTIES#
-3.5747554	On
-4.8977313	matters,
-5.353464	that:
-5.1678615	_(1)_
-4.3443174	Four
-3.9712772	additional
-4.8977313	deputies
-4.463574	employed
-5.1678615	Jail
-5.1678615	doctor,
-3.8787882	medical
-5.353464	intern
-5.353464	extern
-3.489213	night
-4.42008	weekend
-4.566314	duty
-5.353464	jail".
-5.1678615	_(2)_
-5.353464	"work
-4.1739836	officials
-4.088946	pass
-4.2798285	legislation
-4.3108773	permit
-4.2236896	establishment
-4.108696	fair
-5.353464	equitable"
-4.78841	pension
-3.6738968	plan
-4.8977313	employes.
-4.6285195	praised
-3.7736118	administration
-4.1739836	operation
-4.5119133	Police
-4.78841	Tax
-5.353464	Commissioner's
-5.1678615	Office,
-5.353464	Bellwood
-5.353464	Alpharetta
-4.463574	prison
-5.353464	farms,
-4.78841	Grady
-4.2508526	Hospital
-4.6285195	Health
-4.8977313	Department.
-4.0700555	Mayor
-3.7292519	William
-3.8908548	B&
-4.8977313	Hartsfield
-4.566314	filed
-4.5119133	suit
-5.1678615	divorce
-2.3685737	his
-4.1739836	wife,
-5.044178	Pearl
-4.380549	Williams
-5.353464	Hartsfield,
-4.566314	Friday.
-3.2902682	His
-4.6285195	petition
-4.6285195	mental
-5.353464	cruelty.
-3.9862578	couple
-4.42008	married
-4.463574	Aug&
-4.42008	2,
-5.353464	1913.
-3.2301688	They
-4.380549	son,
-5.044178	Berry
-3.9567964	Jr&,
-4.198126	daughter,
-3.0336251	Mrs&
-3.7208986	J&
-3.9567964	M&
-5.353464	Cheshire
-5.1678615	Griffin.
-5.1678615	Attorneys
-5.044178	mayor
-5.353464	amicable
-4.0700555	property
-4.8977313	settlement
-4.2236896	agreed
-5.044178	upon.
-4.2798285	listed
-4.8977313	mayor's
-4.566314	occupation
-5.353464	"attorney"
-3.8444784	age
-5.1678615	71.
-5.353464	wife's
-5.044178	74
-4.5119133	birth
-5.353464	Opelika,
-4.8977313	Ala&.
-4.198126	lived
-3.7377687	together
-3.172676	man
-3.9712772	wife
-2.6862795	more
-2.7347195	than
-3.6813855	year.
-3.278161	home
-5.353464	637
-3.8556166	E&
-4.78841	Pelham
-5.353464	Rd&
-5.353464	~NE.
-4.034574	Henry
-3.9862578	L&
-5.1678615	Bowden
-5.1678615	attorney.
-4.8977313	Atlanta,
-4.1739836	brief
-5.353464	interlude,
-3.3389366	since
-5.1678615	1937.
-4.380549	career
-4.0700555	goes
-3.2933486	back
-4.088946	council
-5.353464	1923.
-3.4345665	present
-4.0017734	office
-5.353464	expires
-4.5119133	1.
-2.7931395	He
-4.6285195	succeeded
-2.5870068	who
-3.7736118	became
-4.151113	candidate
-4.108696	Sept&
-4.2798285	13
-3.069026	after
-3.8126814	announced
-2.3778617	he
-2.6712632	would
-3.6738968	run
-5.353464	reelection.
-4.0700555	Georgia
-4.3443174	Republicans
-2.322577	are
-3.8230238	getting
-3.7736118	strong
-4.701148	encouragement
-4.198126	enter
-4.6285195	1962
-4.6285195	governor's
-4.380549	race,
-3.5928555	top
-3.929207	official
-4.78841	Wednesday.
-3.746456	Robert
-5.1678615	Snodgrass,
-4.42008	~GOP
-4.701148	chairman,
-3.666535	meeting
-3.605355	held
-3.9862578	Tuesday
-4.2236896	Blue
-4.8977313	Ridge
-3.6738968	brought
-4.566314	enthusiastic
-5.044178	responses
-4.566314	audience.
-4.3443174	Party
-4.3443174	Chairman
-3.6592956	James
-3.7830548	W&
-5.353464	Dorsey
-4.463574	enthusiasm
-5.1678615	picking
-2.8805082	up
-4.8977313	rally
-3.929207	8
-5.353464	Savannah
-4.6285195	newly
-3.8556166	Texas
-3.9862578	Sen&
-3.3188102	John
-5.353464	Tower
-4.78841	featured
-5.1678615	speaker.
-2.8460674	In
-4.701148	meeting,
-3.8556166	audience
-4.701148	warned
-4.5119133	entering
-4.42008	governor
-3.9160433	force
-3.2995753	take
-4.701148	petitions
-2.8745751	out
-4.463574	voting
-4.8977313	precincts
-4.3108773	obtain
-4.78841	signatures
-4.8977313	registered
-5.1678615	voters.
-4.463574	Despite
-5.353464	warning,
-2.8722243	there
-5.1678615	unanimous
-3.9427826	vote
-5.044178	candidate,
-3.8126814	according
-5.1678615	attended.
-3.4136815	When
-4.3108773	crowd
-3.6382751	asked
-3.5747554	whether
-4.0017734	wanted
-4.78841	wait
-3.1498725	make
-4.3108773	voted
-5.1678615	no-
-2.6524878	were
-2.8549879	no
-5.353464	dissents.
-4.2236896	largest
-5.353464	hurdle
-3.8670478	face
-3.6890059	says
-3.1565888	before
-3.6890059	making
-2.8793151	first
-4.3443174	alternative
-4.8977313	courses
-3.09174	must
-5.353464	taken:
-4.3443174	_1._
-4.198126	Five
-3.2275043	per
-3.6314883	cent
-3.1476567	each
-3.8444784	county
-4.1739836	sign
-5.353464	requesting
-4.151113	allowed
-4.3443174	names
-4.2798285	candidates
-4.8977313	ballot,
-4.3443174	_2._
-3.8336186	hold
-4.198126	unit
-5.353464	system-
-3.6314883	system
-3.696762	party
-5.353464	opposes
-5.044178	platform.
-4.1739836	Sam
-5.353464	Caldwell,
-4.78841	Highway
-3.345858	public
-4.017864	relations
-4.463574	director,
-4.8977313	resigned
-3.2301688	work
-5.044178	Lt&
-4.1739836	Gov&
-4.8977313	Garland
-5.044178	Byrd's
-4.78841	campaign.
-5.353464	Caldwell's
-4.78841	resignation
-3.7046595	expected
-3.7553205	time.
-5.353464	Rob
-5.353464	Ledford
-5.353464	Gainesville,
-4.380549	assistant
-3.2144217	three
-3.8670478	years.
-4.6285195	gubernatorial
-4.0700555	campaign
-5.1678615	starts,
-5.353464	Caldwell
-3.4136815	become
-4.8977313	coordinator
-5.353464	Byrd.
-4.42008	wind
-3.9160433	1961
-3.8230238	session
-3.9160433	Monday
-3.5406728	head
-5.353464	home-
-3.1657085	where
-4.463574	highway
-4.3443174	bond
-3.8444784	money
-4.42008	approved
-5.353464	shortly.
-4.2798285	Before
-5.353464	adjournment
-5.044178	afternoon,
-3.9712772	Senate
-4.78841	approve
-3.9032664	study
-4.8977313	allotted
-4.380549	rural
-4.5119133	urban
-3.7127032	areas
-4.0700555	determine
-2.9517589	what
-5.1678615	adjustments
-4.463574	made.
-4.78841	Vandiver
-4.034574	traditional
-3.8908548	visit
-5.1678615	chambers
-3.5298815	toward
-5.353464	adjournment.
-3.8787882	likely
-4.1739836	mention
-4.566314	$100
-3.5461707	million
-3.7736118	issue
-3.8908548	earlier
-4.701148	priority
-5.353464	item.
-5.353464	#CONSTRUCTION
-5.353464	BONDS#
-4.701148	Meanwhile,
-4.017864	learned
-3.158851	very
-3.8444784	near
-3.1967437	being
-3.929207	ready
-5.353464	$30
-4.017864	worth
-5.1678615	reconstruction
-4.42008	bonds.
-3.4990287	go
-4.78841	courts
-4.463574	friendly
-3.9712772	test
-5.1678615	validity
-4.6285195	act,
-3.1680186	then
-3.746456	sales
-4.0700555	begin
-4.8977313	contracts
-3.7292519	let
-4.78841	repair
-2.9517589	most
-4.3443174	heavily
-4.78841	traveled
-5.044178	highways.
-2.9205298	A
-4.151113	source
-5.1678615	$3
-5.1678615	$4
-5.044178	Rural
-5.044178	Roads
-4.701148	Authority
-4.2508526	bonds
-4.0700555	road
-4.108696	construction
-4.088946	work.
-4.2508526	#A
-5.353464	REVOLVING
-5.353464	FUND#
-4.2508526	department
-3.8556166	apparently
-5.044178	intends
-5.044178	revolving
-4.2798285	fund
-4.198126	issued
-3.36731	every
-3.0653532	time
-3.378447	old
-4.2508526	ones
-3.8336186	paid
-3.3221004	off
-3.5867379	tax
-5.353464	authorities.
-3.9567964	opened
-3.8787882	race
-4.5119133	1958
-4.129387	battle
-3.2196076	against
-5.1678615	issuance
-5.1678615	$50
-4.2236896	roads
-4.0700555	proposed
-5.044178	Marvin
-3.55738	told
-5.353464	Constitution,
-3.5040212	however,
-5.1678615	consulted
-3.6813855	yet
-2.8493912	about
-3.9427826	plans
-5.353464	Schley
-4.3443174	Rep&
-3.929207	D&
-4.108696	offer
-4.108696	resolution
-3.5928555	House
-5.1678615	rescind
-5.044178	body's
-3.6382751	action
-3.7127032	itself
-5.044178	$10
-3.447597	day
-3.7377687	increase
-4.380549	expense
-5.353464	allowances.
-3.7292519	Sunday
-4.034574	research
-3.5928555	done
-5.353464	"quickie"
-2.723756	can
-5.353464	repealed
-4.78841	outright
-4.5119133	notice
-3.447597	given
-5.044178	reconsideration
-5.1678615	sought.
-4.017864	While
-5.1678615	emphasizing
-4.108696	technical
-4.463574	details
-4.1739836	fully
-3.8908548	worked
-4.1739836	out,
-3.929207	seek
-3.405601	set
-4.2236896	aside
-4.6285195	privilege
-5.353464	87-31.
-3.9862578	similar
-3.9427826	passed
-5.353464	29-5.
-3.3155446	As
-4.2508526	night,
-3.7927074	word
-3.9862578	offered
-4.463574	action.
-4.3108773	pointed
-2.993082	last
-4.2508526	November
-4.42008	rejected
-4.380549	constitutional
-4.566314	amendment
-4.108696	allow
-3.746456	pay
-4.78841	raises
-5.1678615	sessions.
-4.3443174	veteran
-4.5119133	Jackson
-5.1678615	legislator
-4.0700555	ask
-3.7927074	aid
-4.463574	education,
-3.5990603	something
-4.78841	consistently
-4.151113	opposed
-4.78841	past.
-5.353464	Mac
-5.044178	Barber
-4.463574	Commerce
-4.42008	asking
-5.353464	"endorse
-4.017864	increased
-3.7046595	support
-4.034574	provided
-3.7292519	received
-5.353464	expended"
-4.8977313	funds.
-5.353464	Barber,
-4.8977313	13th
-3.2841725	year
-5.353464	legislator,
-3.3188102	members
-4.42008	congressional
-5.044178	delegation
-3.7377687	Washington
-3.1611247	like
-3.3188102	see
-4.2798285	(the
-5.353464	resolution)
-5.353464	passed".
-2.8975658	But
-5.1678615	congressmen
-4.463574	specifically
-3.074594	him
-5.353464	resolution.
-5.1678615	resolution,
-5.044178	tossed
-5.1678615	hopper
-4.6285195	Friday,
-4.6285195	formally
-3.9567964	read
-4.6285195	Monday.
-4.463574	"in
-4.151113	event
-3.9160433	Congress
-3.3287568	does
-3.6314883	provide
-4.108696	Board
-4.2798285	Education
-4.129387	directed
-5.044178	"give
-5.353464	priority"
-4.1739836	teacher
-5.353464	raises.
-5.353464	_COLQUITT_-
-3.6117425	After
-4.463574	long,
-3.9862578	hot
-5.044178	controversy,
-5.044178	Miller
-3.5141811	school
-4.78841	superintendent,
-5.353464	elected,
-5.044178	policeman
-3.44321	put
-3.5747554	it,
-5.353464	"coolest
-2.6324608	I
-3.5461707	ever
-3.76437	saw
-5.353464	county".
-4.8977313	superintendent
-4.3108773	Harry
-5.353464	Davis,
-4.78841	agriculture
-4.701148	teacher,
-4.78841	defeated
-4.8977313	Felix
-5.1678615	Bush,
-4.108696	principal
-3.9712772	chairman
-3.7553205	Democratic
-4.5119133	Committee.
-4.3443174	Davis
-5.353464	1,119
-4.6285195	votes
-5.044178	Saturday's
-5.353464	Bush
-3.5990603	got
-5.353464	402.
-5.1678615	Ordinary
-5.1678615	Carey
-4.8977313	Williams,
-4.3443174	armed
-5.353464	pistol,
-4.151113	stood
-4.8977313	polls
-4.566314	insure
-4.463574	order.
-5.353464	coolest,
-5.353464	calmest
-5.353464	saw",
-5.353464	Colquitt
-5.353464	Policeman
-4.463574	Tom
-5.353464	"Being
-3.1565888	just
-4.42008	church.
-3.9862578	didn't
-4.78841	smell
-4.2508526	drop
-5.044178	liquor,
-2.72794	we
-3.9712772	bit
-5.044178	trouble".
-4.0519524	leading
-5.044178	quiet,
-4.78841	however.
-4.2236896	marked
-4.78841	anonymous
-4.78841	midnight
-5.044178	phone
-3.9862578	calls
-4.8977313	veiled
-5.044178	threats
-4.701148	violence.
-3.7736118	former
-3.8670478	George
-4.0700555	P&
-5.353464	Callan,
-4.151113	shot
-3.5090714	himself
-3.6738968	death
-3.9712772	March
-4.6285195	18,
-3.374703	four
-3.5807054	days
-4.42008	post
-4.78841	dispute
-4.380549	board.
-4.088946	During
-5.044178	campaign,
-5.044178	candidates,
-4.78841	reportedly
-4.198126	telephone
-5.1678615	calls.
-5.044178	he,
-3.8908548	too,
-4.6285195	subjected
-3.8670478	soon
-4.108696	scheduled
-4.6285195	election.
-3.8787882	Many
-3.568886	local
-5.044178	feared
-5.353464	polls,
-4.108696	carry
-4.42008	gun
-4.3443174	promised
-5.1678615	Sheriff
-5.353464	Tabb
-4.42008	ordinary
-3.0387547	made
-3.076466	good
-4.8977313	promise.
-5.353464	"Everything
-3.6117425	went
-3.5461707	real
-5.353464	smooth",
-5.044178	sheriff
-4.701148	"There
-4.566314	wasn't
-4.701148	_AUSTIN,
-4.701148	TEXAS_-
-3.9862578	Committee
-4.3443174	approval
-4.8977313	Price
-5.353464	Daniel's
-5.353464	"abandoned
-5.353464	property"
-3.7830548	seemed
-3.696762	certain
-4.2508526	Thursday
-4.151113	despite
-5.1678615	adamant
-5.353464	protests
-5.1678615	bankers.
-4.78841	Daniel
-4.701148	personally
-3.8908548	led
-4.0017734	fight
-5.1678615	measure,
-5.353464	watered
-3.3355167	down
-4.3108773	considerably
-4.8977313	rejection
-5.353464	Legislatures,
-4.2236896	hearing
-4.8977313	Revenue
-5.353464	Taxation.
-4.3108773	Under
-3.8126814	committee
-5.1678615	rules,
-4.78841	automatically
-4.8977313	subcommittee
-3.9567964	week.
-4.151113	questions
-5.1678615	taunted
-4.78841	bankers
-4.701148	appearing
-4.78841	witnesses
-3.397668	left
-3.2355473	little
-4.108696	doubt
-4.463574	recommend
-4.42008	passage
-3.3822238	it.
-4.8977313	termed
-5.353464	"extremely
-5.353464	conservative"
-4.463574	estimate
-4.108696	produce
-4.566314	17
-4.108696	dollars
-3.5245848	help
-5.353464	erase
-4.701148	anticipated
-4.78841	deficit
-5.353464	63
-3.9862578	current
-4.3443174	fiscal
-5.1678615	31.
-4.129387	measure
-3.8336186	merely
-3.5928555	means
-5.1678615	enforcing
-5.1678615	escheat
-4.129387	books
-5.353464	"since
-5.353464	republic".
-4.6285195	permits
-3.0024729	over
-4.3443174	bank
-5.353464	accounts,
-4.78841	stocks
-3.76437	personal
-3.8908548	persons
-4.701148	missing
-4.017864	seven
-3.1198344	years
-4.2236896	more.
-4.42008	bill,
-5.1678615	drafted
-5.1678615	personally,
-5.044178	banks,
-4.6285195	insurance
-5.044178	firms,
-5.1678615	pipeline
-4.151113	companies
-5.044178	corporations
-3.9032664	report
-5.353464	treasurer.
-3.4990287	cannot
-4.8977313	enforced
-3.1680186	now
-3.158851	because
-3.4303083	almost
-4.3108773	impossible
-5.1678615	locate
-5.1678615	property,
-5.044178	declared.
-5.1678615	Dewey
-5.353464	Lawrence,
-5.353464	Tyler
-4.566314	lawyer
-4.463574	representing
-5.044178	Bankers
-4.463574	Association,
-4.8977313	sounded
-4.2508526	opposition
-5.044178	keynote
-5.1678615	banks
-5.1678615	violate
-2.654613	their
-5.353464	contractual
-4.701148	obligations
-5.353464	depositors
-5.353464	undermine
-4.3108773	confidence
-5.044178	customers.
-4.3443174	"If
-2.7970655	you
-4.034574	destroy
-5.353464	economy",
-4.3443174	"You
-5.044178	circulation
-4.1739836	millions
-5.353464	dollars".
-3.9712772	Charles
-4.151113	Hughes
-5.044178	Sherman,
-4.701148	sponsor
-4.3108773	failure
-5.1678615	enact
-3.7927074	amount
-4.2508526	gift
-5.1678615	taxpayers'
-5.044178	pockets
-5.353464	companies".
-5.1678615	contention
-4.566314	denied
-3.5040212	several
-5.353464	bankers,
-3.7553205	including
-4.8977313	Scott
-5.1678615	Hudson
-5.353464	Gaynor
-4.088946	Jones
-4.701148	Houston,
-5.353464	Brady
-5.353464	Harlingen
-4.3108773	Howard
-5.044178	Cox
-5.353464	Austin.
-4.5119133	argued
-3.8670478	bill
-5.1678615	"probably
-5.353464	unconstitutional"
-5.353464	since,
-5.353464	impair
-5.353464	contracts.
-4.701148	complained
-3.5352437	enough
-5.353464	hearing,
-4.0519524	introduced
-2.82982	only
-4.8977313	Senators
-4.8977313	unanimously
-4.8977313	Parkhouse
-3.8025796	Dallas
-5.1678615	authorizing
-3.8230238	schools
-4.701148	deaf
-5.044178	counties.
-3.8126814	designed
-3.5747554	special
-5.1678615	schooling
-3.9160433	students
-5.044178	scholastic
-4.3108773	reduced
-4.2798285	state.
-3.2118518	There
-4.6285195	debate
-4.6285195	House.
-5.1678615	authorize
-5.1678615	Agency
-4.380549	establish
-5.1678615	county-wide
-4.8977313	300,000
-5.1678615	population,
-4.088946	require
-3.6314883	children
-3.2382617	between
-4.0017734	6
-4.088946	attend
-4.198126	schools,
-4.8977313	permitting
-4.3443174	older
-4.566314	residential
-3.9712772	School
-5.353464	Deaf
-4.2798285	here.
-5.1678615	Operating
-4.0017734	budget
-3.6117425	five
-5.044178	Dallas,
-4.701148	Harris,
-5.353464	Bexar,
-5.353464	Tarrant
-4.3443174	El
-4.8977313	Paso
-5.353464	$451,500,
-4.6285195	savings
-5.353464	$157,460
-4.8977313	yearly
-4.151113	year's
-4.380549	capital
-5.1678615	outlay
-5.353464	$88,000
-5.1678615	absorbed,
-5.1678615	Senate.
-5.353464	~TEA
-4.129387	estimated
-5.353464	182
-5.353464	scholastics
-4.5119133	saving
-3.8787882	coming
-4.8977313	Austin
-3.7377687	live
-4.6285195	school.
-3.4990287	#@#
-5.353464	{DALLAS
-4.701148	MAY
-5.353464	GET}
-3.9862578	hear
-4.3443174	horse
-5.353464	parimutuels
-5.1678615	Reps&
-4.6285195	V&
-5.353464	(Red)
-4.2798285	Joe
-5.1678615	Ratcliff.
-3.2382617	still
-5.353464	Ratcliff
-4.3108773	expects
-3.8670478	tell
-5.1678615	folks
-3.7553205	why
-4.566314	thinks
-5.353464	Berry's
-5.1678615	rejected.
-5.044178	"We're
-5.353464	'pro'
-4.1739836	letters
-5.353464	'con'
-5.353464	betting",
-4.5119133	"But
-3.8556166	believe
-2.961727	if
-3.2549148	people
-3.4565065	better
-4.3443174	informed
-4.8977313	question,
-4.566314	oppose
-4.78841	also.
-4.2508526	I'm
-3.9862578	willing
-5.1678615	stake
-3.1432586	my
-4.2508526	it".
-5.1678615	Berry,
-5.353464	ex-gambler
-3.929207	San
-5.353464	Antonio,
-5.044178	advocacy
-5.1678615	betting
-5.353464	ponies.
-3.8670478	heard
-5.1678615	option
-4.2508526	proposal
-3.4702232	give
-4.463574	favorable
-4.8977313	report,
-3.7553205	although
-4.566314	faces
-3.8908548	hard
-5.353464	sledding
-4.463574	later.
-4.463574	{THE
-5.353464	HOUSE}
-5.044178	finally,
-3.9567964	sent
-4.566314	Senate,
-4.5119133	extending
-4.198126	authority
-4.017864	planning
-4.78841	cities.
-5.353464	SENATE}
-4.380549	quickly
-4.78841	whipped
-5.353464	meager
-5.353464	fare
-4.42008	bills
-5.1678615	committees,
-4.2508526	passing
-5.1678615	calendar.
-3.4656026	One
-5.353464	validated
-4.5119133	acts
-5.1678615	districts.
-4.0017734	Another
-5.044178	enlarged
-5.1678615	Beaumont
-5.353464	Navigation
-5.1678615	District.
-3.6890059	third
-5.353464	amended
-4.3108773	creation
-5.044178	Lamar
-5.353464	District,
-4.380549	previously
-5.353464	adopted.
-5.353464	{WITHOUT
-5.353464	DISSENT},
-5.044178	senators
-3.7046595	A&
-4.088946	R&
-5.353464	Schwartz
-5.353464	Galveston
-4.701148	mentally
-4.78841	retarded
-4.701148	Gulf
-4.380549	Coast
-5.044178	district.
-5.1678615	Money
-4.380549	sought
-3.6890059	later
-5.353464	meantime
-3.605355	board
-4.088946	accept
-4.701148	gifts
-5.1678615	donations
-4.5119133	site.
-5.353464	{TWO
-5.353464	TAX
-5.353464	REVISION}
-5.044178	passed.
-5.1678615	One,
-3.8444784	Louis
-5.353464	Crump
-5.353464	Saba,
-5.353464	17,000
-5.1678615	retailers
-3.5406728	group
-5.1678615	miscellaneous
-5.1678615	excise
-4.566314	taxes
-4.6285195	eliminating
-4.78841	requirement
-4.017864	return
-5.353464	notarized.
-5.1678615	Instead,
-5.1678615	certificate
-5.353464	correctness,
-4.78841	violation
-4.6285195	penalty
-5.1678615	prison,
-4.034574	plus
-5.044178	$1,000
-4.8977313	fine.
-3.7377687	series
-4.566314	recommendations
-4.8977313	Research
-5.1678615	League.
-5.1678615	OTHER
-5.353464	BILL},
-5.353464	Aikin
-4.3443174	Jr&
-4.8977313	Paris,
-4.78841	relieve
-4.1739836	estate
-5.353464	brokers,
-3.2382617	own
-3.8230238	annual
-5.044178	licensing
-5.1678615	fee,
-5.353464	$12
-4.6285195	license
-5.044178	brokers
-5.353464	{NATURAL
-5.353464	GAS}
-4.566314	utility
-3.3423834	right
-5.044178	eminent
-5.1678615	domain,
-4.0519524	Frank
-5.1678615	Owen
-4.8977313	/3,
-4.8977313	Paso,
-4.463574	acquire
-4.6285195	sites
-5.044178	underground
-4.701148	storage
-5.1678615	reservoirs
-5.353464	gas.
-5.353464	{MARSHALL
-5.353464	FORMBY}
-5.353464	Plainview,
-4.78841	Commission,
-4.2236896	suggested
-4.2236896	fill
-5.353464	vacancies
-4.3443174	Congress,
-3.3937552	need
-4.78841	costly
-5.353464	elections.
-5.353464	Formby's
-4.78841	plan,
-5.1678615	appointee
-4.3108773	selected
-4.701148	composed
-5.1678615	governor,
-5.353464	lieutenant
-4.463574	speaker
-4.42008	House,
-4.3443174	attorney
-4.151113	chief
-4.2236896	justice
-4.5119133	Supreme
-5.044178	Court.
-4.701148	representatives
-3.8556166	decided
-3.8908548	taking
-4.701148	poll
-3.6890059	kind
-4.6285195	Texans
-4.701148	prefer
-4.78841	pay.
-3.8444784	An
-4.8977313	adverse
-5.353464	81
-4.6285195	65
-3.8556166	kept
-4.8977313	Affairs
-3.6521752	order
-5.353464	referendum
-4.108696	April
-3.9032664	4
-3.5245848	U&S&
-5.353464	senator.
-5.353464	Wesley
-5.1678615	Roberts
-5.353464	Seminole,
-5.1678615	idea,
-4.6285195	delay
-4.6285195	kill
-4.8977313	bill.
-3.4940932	West
-5.353464	Texan
-3.8025796	reported
-4.129387	finally
-5.044178	gotten
-4.0700555	Bill
-5.353464	Hollowell
-4.463574	Feb&
-5.044178	22.
-3.7377687	final
-4.2508526	legislative
-4.8977313	approval,
-4.78841	two-thirds
-5.353464	majorities,
-4.5119133	printed
-5.353464	Opponents
-4.8977313	ballot
-4.6285195	couldn't
-4.088946	information
-4.42008	proposals
-4.78841	intelligent
-4.8977313	choice.
-3.6248062	All
-5.353464	Roberts,
-3.929207	except
-4.701148	Jones,
-5.353464	absent.
-5.353464	Paradise
-3.9032664	lost
-5.1678615	alleged
-3.55738	water
-3.8444784	needs
-5.044178	Texas'
-3.5245848	big
-4.2798285	cities
-5.044178	Thursday.
-4.8977313	Cotten
-5.353464	Weatherford
-4.701148	insisted
-3.8126814	development
-5.044178	Representatives
-3.8444784	effort
-4.5119133	Fort
-5.1678615	Worth
-4.108696	cover
-4.108696	places
-5.1678615	Paradise,
-5.353464	Wise
-5.353464	hamlet
-4.8977313	250
-4.2508526	people.
-4.8977313	shouting
-5.353464	ended,
-5.353464	passed,
-5.353464	114
-4.463574	4,
-4.701148	sending
-4.566314	sponsored
-4.8977313	Dallas.
-3.9160433	Most
-5.353464	Parkhouse.
-5.353464	$5,000,000
-5.353464	$15,000,000
-4.2236896	maximum
-4.6285195	loan
-2.9915366	could
-4.2798285	project.
-5.353464	construed
-3.4796143	large
-3.2549148	get
-4.0017734	felt
-4.017864	spent
-4.1739836	providing
-5.044178	Texas.
-5.353464	Statements
-4.566314	paying
-5.044178	bonds,
-4.2236896	benefit
-4.8977313	pending
-5.353464	sway
-5.353464	Cotten's
-4.463574	attack.
-5.1678615	bill's
-5.1678615	defenders
-4.3108773	mostly
-5.353464	small-town
-5.353464	Buchanan
-5.353464	Dumas,
-5.353464	Eligio
-5.353464	(Kika)
-3.8670478	de
-4.78841	la
-5.353464	Garza
-5.1678615	Mission,
-3.9160433	F&
-5.1678615	Collins
-5.353464	Newton
-5.044178	Chapman
-5.353464	Sulphur
-5.353464	Springs.
-4.3443174	poor
-5.044178	boy's
-5.353464	bill",
-5.353464	Chapman.
-5.353464	"Dallas
-2.9734063	This
-5.353464	peanut
-5.353464	districts".
-4.566314	Houston
-4.380549	serving
-5.044178	Legislature,
-4.2508526	reducing
-4.566314	learning
-5.353464	"educational
-5.353464	methods".
-3.7927074	C&
-5.353464	Grover,
-4.8977313	teaches
-3.7046595	history
-4.2508526	24
-3.8908548	12
-5.044178	semester
-3.8336186	hours
-4.5119133	so-called
-5.353464	"teaching
-5.353464	methods"
-4.034574	required
-4.3108773	junior
-4.463574	senior
-3.374703	high
-4.2798285	teaching
-5.353464	certificate.
-4.151113	normal
-4.017864	college
-3.9712772	30
-4.463574	hours.
-5.1678615	Grover
-5.353464	junior-senior
-4.198126	teachers
-3.4990287	least
-4.380549	credit
-4.0519524	subject
-5.044178	teaching.
-4.78841	remainder
-5.1678615	4-year
-5.1678615	subjects.
-4.129387	"A
-3.9427826	person
-4.78841	master's
-4.017864	degree
-5.044178	physics,
-5.044178	chemistry,
-5.1678615	math
-4.566314	English,
-3.5867379	taken
-5.1678615	courses,
-4.566314	permitted
-4.3108773	teach
-5.353464	schools",
-5.353464	Grover.
-4.151113	College
-5.353464	courses.
-5.353464	Fifty-three
-4.8977313	150
-4.034574	immediately
-4.2236896	joined
-5.353464	co-signers
-5.353464	proposal.
-5.353464	_PARIS,
-5.1678615	TEXAS
-5.1678615	(SP&)_-
-5.353464	regents
-4.2508526	Paris
-3.8556166	Junior
-4.2236896	named
-3.4843872	Dr&
-4.8977313	Clarence
-4.566314	Clark
-5.1678615	Hays,
-5.1678615	Kan&
-5.044178	school's
-4.6285195	president.
-4.78841	succeed
-5.353464	McLemore,
-4.8977313	retire
-3.7736118	close
-5.1678615	term.
-4.2236896	holds
-4.566314	earned
-5.1678615	Doctor
-3.7046595	University
-5.353464	Oklahoma.
-5.1678615	Master
-4.6285195	Science
-5.353464	~A+~I
-5.353464	Bachelor
-5.1678615	Southwestern
-4.566314	College,
-5.353464	Weatherford,
-5.353464	Okla&.
-4.463574	addition,
-4.3443174	Rhode
-3.9712772	Island
-4.42008	Massachusetts
-4.42008	Institute
-5.1678615	Technology.
-5.1678615	career,
-4.78841	captain
-4.78841	basketball
-3.9032664	team
-4.2508526	football
-5.353464	letterman.
-3.929207	served
-4.78841	Oklahoma
-5.1678615	athletic
-4.0017734	director
-5.353464	Raymondville,
-4.78841	Texas,
-4.108696	High
-4.42008	School,
-5.353464	instructor
-5.1678615	Oklahoma,
-4.6285195	associate
-4.42008	professor
-4.151113	education
-5.353464	Kan&,
-4.8977313	College.
-4.701148	border
-5.353464	patrolman
-5.044178	Signal
-4.198126	Corps
-4.8977313	Army.
-5.353464	_DENTON,
-5.353464	Principals
-5.044178	Denton
-5.044178	Independent
-4.3108773	District
-5.1678615	re-elected
-5.1678615	1961-62
-3.4990287	upon
-4.8977313	recommendation
-5.1678615	Supt&
-4.701148	Chester
-4.463574	O&
-5.353464	Strickland.
-4.3443174	racial
-4.42008	discrimination
-4.566314	employment
-3.4796143	called
-3.7553205	yesterday
-5.1678615	"blue
-5.353464	ribbon"
-4.701148	dependent
-4.1739836	program.
-5.353464	culminating
-3.3155446	long
-4.6285195	~ADC
-4.8977313	Cook
-3.0878708	New
-3.4940932	York
-5.044178	consulting
-4.6285195	firm,
-3.6521752	10
-4.129387	range
-5.1678615	soaring
-3.76437	case
-4.8977313	load.
-5.1678615	"one
-3.9032664	serious
-4.2798285	causes
-3.5747554	family
-5.1678615	breakdown,
-5.353464	desertion,
-5.353464	dependency".
-5.353464	#"MUST
-5.353464	SOLVE
-5.353464	PROBLEM"#
-4.8977313	monthly
-4.78841	100,000
-5.1678615	recipients
-5.353464	4.4
-5.044178	dollars,
-5.353464	Virgil
-4.6285195	Martin,
-3.7553205	president
-5.1678615	Carson
-5.353464	Pirie
-4.0519524	+
-4.5119133	Co&,
-5.044178	chairman.
-3.9427826	"We
-4.5119133	solve
-3.746456	problems
-4.2508526	forced
-4.463574	depend
-5.353464	subsistence",
-4.2236896	Martin
-4.017864	volume
-4.151113	cases
-5.1678615	decrease,
-5.353464	reported,
-3.7830548	community
-3.6117425	able
-4.0017734	deal
-4.5119133	effectively
-5.353464	problems:
-5.353464	Relatively
-3.9712772	limited
-4.78841	skills
-4.463574	color.
-5.1678615	These,
-5.1678615	"two
-4.6285195	underlying
-5.353464	breakups
-5.353464	~ADC".
-5.1678615	#CALLS
-3.9427826	FOR
-5.353464	EXTENSION#
-4.034574	Other
-4.8977313	are:
-5.353464	Extension
-3.8126814	living
-5.1678615	relatives,
-4.78841	parents,
-5.044178	preserving
-4.701148	unity.
-4.6285195	projects
-4.2798285	prevention
-5.353464	dependency
-5.353464	illegitimacy.
-4.1739836	Several
-4.566314	defendants
-5.353464	Summerdale
-3.929207	police
-5.1678615	burglary
-4.2236896	trial
-4.3108773	statements
-5.353464	indicating
-4.8977313	guilt
-5.1678615	arrest,
-5.044178	Parsons
-4.8977313	Criminal
-4.463574	yesterday.
-5.1678615	disclosure
-5.353464	Bellows,
-4.034574	defense
-5.353464	counsel,
-5.353464	startled
-4.78841	observers
-4.701148	viewed
-5.353464	prelude
-5.1678615	quarrel
-3.7377687	six
-4.8977313	attorneys
-3.8230238	eight
-5.044178	policemen
-4.78841	trial.
-5.044178	Bellows
-4.42008	grant
-5.1678615	client,
-4.78841	Alan
-5.353464	Clements,
-4.8977313	30,
-4.151113	separate
-4.380549	request
-3.3221004	while
-5.353464	all-woman
-5.353464	courtroom.
-5.353464	#FEARS
-5.353464	PREJUDICIAL
-5.353464	ASPECTS#
-3.4016163	"The
-4.108696	highly
-5.353464	prejudicial
-5.353464	client",
-4.8977313	court.
-5.1678615	"Some
-4.463574	strongly
-4.108696	indicated
-4.0017734	knew
-4.380549	receiving
-4.8977313	stolen
-5.044178	property.
-4.566314	involving
-3.7046595	themselves
-5.353464	others".
-4.8977313	leaned
-4.5119133	bench
-5.353464	inquired,
-3.9567964	mean
-5.044178	admitting
-5.1678615	this"?
-5.353464	"Yes,
-3.061711	your
-5.353464	honor",
-5.1678615	replied
-5.353464	Bellows.
-4.42008	"What
-4.701148	amounts
-4.701148	to,
-4.701148	true,
-5.353464	free-for-all
-4.566314	case.
-4.380549	conflict
-5.353464	defendants".
-4.701148	_WASHINGTON,
-5.1678615	JULY
-5.353464	24_-
-3.3155446	President
-3.4940932	Kennedy
-3.5630949	today
-4.5119133	pushed
-3.6890059	White
-3.6521752	business
-4.78841	devote
-3.9427826	attention
-3.8126814	working
-3.7927074	Berlin
-4.088946	crisis
-4.2798285	address
-4.78841	deliver
-4.151113	tomorrow
-3.10556	American
-5.044178	nationwide
-4.2236896	television
-4.78841	radio.
-3.1345937	much
-5.1678615	week-end
-3.9160433	summer
-4.42008	Cape
-4.8977313	Cod
-4.2508526	writing
-5.353464	drafts
-5.044178	portions
-4.566314	aids
-3.8787882	whom
-4.566314	talked
-5.1678615	telephone.
-5.1678615	Shortly
-4.566314	Chief
-4.108696	returned
-5.353464	midmorning
-5.1678615	Hyannis
-5.1678615	Port,
-4.78841	Mass&,
-4.5119133	spokesman
-4.78841	text
-5.044178	"quite
-3.2409933	way
-5.1678615	go"
-5.353464	completion.
-5.353464	#DECISIONS
-4.463574	ARE
-5.353464	MADE#
-5.353464	Asked
-4.8977313	Pierre
-5.353464	Salinger,
-3.8556166	press
-5.044178	secretary,
-5.044178	replied,
-3.568886	"I
-3.5461707	say
-3.8126814	it's
-4.5119133	thru
-5.353464	drafts".
-5.1678615	Salinger
-4.2508526	Kennedy,
-5.1678615	advisers,
-3.9712772	staff
-3.8908548	doing
-3.9427826	involved
-5.353464	composition
-5.1678615	wording,
-3.5141811	rather
-5.044178	minute
-4.3108773	decisions
-3.8336186	meet
-4.2798285	latest
-5.353464	precipitated
-4.5119133	Russia's
-4.2798285	demands
-4.2508526	city.
-4.2236896	Nov&
-5.1678615	dismissed
-4.8977313	Acting
-5.1678615	Karns,
-4.8977313	prosecution
-4.2508526	obtained
-3.8908548	evidence
-5.1678615	"by
-4.8977313	unfair
-5.1678615	fundamentally
-5.044178	illegal
-5.1678615	means".
-4.8977313	Karns
-3.7046595	matter
-4.78841	"of
-3.1177661	even
-4.3443174	significance
-5.353464	innocence"
-3.929207	50
-4.8977313	persons.
-4.2798285	legal
-4.566314	rights
-5.353464	citizens".
-5.353464	Karns'
-4.78841	ruling
-5.353464	pertained
-5.044178	cases.
-4.380549	ruled
-5.353464	"unable
-5.353464	case".
-5.353464	Contempt
-5.1678615	proceedings
-4.463574	originally
-5.353464	677
-5.044178	133
-4.701148	Morris
-5.353464	Wexler,
-5.353464	prosecutor.
-5.353464	#ISSUE
-5.353464	JURY
-5.353464	SUBPENAS#
-4.78841	Wexler
-4.2798285	admitted
-4.8977313	hearings
-5.353464	subpenas
-4.198126	200
-5.353464	investigation,
-4.5119133	questioned
-4.198126	individuals
-4.8977313	building,
-5.1678615	Mayer
-5.1678615	Goldberg,
-4.5119133	judges
-5.1678615	58th
-4.78841	precinct
-4.8977313	23d
-4.8977313	ward,
-4.5119133	procedure
-4.78841	constituted
-5.353464	intimidation.
-5.1678615	repeatedly
-5.353464	coercion
-3.378447	used
-5.353464	questioning.
-5.353464	"wrongful
-5.353464	act"
-5.353464	"privately
-3.9032664	outside
-5.353464	room".
-5.044178	"very
-5.353464	misuse"
-5.1678615	processes.
-5.353464	"Actually,
-4.8977313	abuse
-4.1739836	process
-5.1678615	contempt
-4.78841	county,
-5.044178	altho
-5.1678615	vindication
-4.8977313	function
-5.353464	court",
-4.1739836	judge
-3.5928555	East
-3.4990287	St&
-4.2798285	sitting
-5.353464	#FACED
-5.353464	SEVEN
-5.353464	CASES#
-3.5517392	week
-4.6285195	35
-5.353464	"complementary"
-5.353464	miscount
-4.566314	vote,
-4.463574	another.
-5.353464	33d,
-5.353464	24th,
-5.353464	42d
-5.353464	31st
-5.353464	21st
-4.8977313	28th
-5.044178	29th
-4.78841	18th
-5.044178	4th
-4.78841	9th
-5.353464	ward.
-5.1678615	ward
-5.353464	advisement
-5.353464	Karns.
-4.0519524	Two
-5.353464	advisement.
-5.353464	#CLAIMS
-5.353464	PRECEDENT
-5.353464	LACKING#
-4.088946	reading
-3.9160433	statement
-5.353464	discharging
-4.2508526	case,
-5.353464	subpenaed,
-5.353464	dismiss
-3.6592956	them.
-4.701148	FEB&
-4.6285195	9_-
-5.1678615	mammoth
-3.929207	care
-4.8977313	whereby
-3.7046595	social
-4.108696	security
-4.3443174	70
-4.2236896	workers
-4.088946	raised
-4.0700555	hospital
-5.353464	14.2
-3.9712772	Americans
-4.151113	covered
-4.2508526	railroad
-4.6285195	retirement
-4.566314	programs.
-4.78841	President,
-4.2798285	message
-4.566314	tied
-4.6285195	aged
-4.701148	requests
-4.42008	grants
-4.701148	finance
-4.566314	dental
-5.044178	scholarships,
-3.929207	build
-3.8908548	20
-4.78841	expand
-4.017864	health
-5.044178	research.
-5.353464	senator,
-4.42008	Capitol
-5.1678615	hill.
-5.353464	#COST
-5.353464	UP
-3.8025796	TO
-5.044178	$37
-5.1678615	YEAR#
-4.78841	financed
-5.353464	boosting
-4.42008	payroll
-4.8977313	taxes.
-5.1678615	cent-
-3.9567964	3
-5.044178	worker
-5.353464	employer-
-5.353464	$4,800
-4.108696	alone
-4.566314	boost
-4.0700555	base
-4.8977313	$5,000
-5.353464	6.5
-5.353464	3.25
-4.701148	each.
-5.353464	Similar
-5.353464	boosts
-4.78841	imposed
-3.0956438	those
-4.3443174	system.
-3.9032664	actually
-4.108696	rise
-5.353464	7.5
-4.034574	starting
-4.2798285	1,
-5.1678615	1963,
-5.353464	approved,
-5.1678615	levy
-3.6314883	already
-4.566314	costs.
-5.353464	#OUTLAYS
-5.1678615	WOULD
-5.353464	INCREASE#
-5.1678615	Officials
-4.701148	1.5
-3.9862578	billion
-4.380549	benefits
-3.7927074	year,
-5.1678615	1963.
-4.088946	Both
-4.151113	figures
-3.8556166	higher
-4.017864	parts
-5.1678615	entail
-5.353464	750
-3.6117425	These
-4.6285195	general,
-5.353464	payroll,
-5.353464	#NURSING
-5.1678615	HOME
-5.353464	CARE#
-4.566314	carries
-5.353464	systems:
-5.1678615	Full
-4.6285195	payment
-5.353464	stays
-4.701148	90
-5.353464	illness,
-4.380549	patient
-4.108696	nine
-4.151113	days.
-4.701148	nursing
-4.78841	180
-3.7736118	following
-4.6285195	discharge
-4.8977313	hospital.
-4.566314	300
-5.353464	paid-for
-5.353464	"unit
-5.353464	formula"
-4.463574	allowing
-3.2964509	use
-3.3636603	part
-5.353464	hospital-care
-5.044178	credit.
-4.5119133	_3._
-5.353464	outpatient
-5.353464	clinic
-5.353464	diagnostic
-3.696762	service
-4.2236896	excess
-5.044178	$20
-4.5119133	patient.
-4.6285195	_4._
-4.701148	Community
-4.5119133	visiting
-4.701148	nurse
-5.353464	240
-5.044178	illness.
-4.2508526	noted
-3.929207	states
-4.8977313	needy
-5.1678615	aged.
-5.353464	PROPOSAL
-5.1678615	MODEST#
-5.1678615	"meet
-4.2508526	wish
-5.1678615	expense,
-4.5119133	nevertheless
-5.044178	staggered
-4.8977313	drain
-5.353464	savings-
-5.1678615	children-
-4.151113	caused
-4.566314	extended
-5.353464	stay".
-4.3108773	modest
-3.6738968	cut
-4.566314	absolutely
-4.2508526	essential
-5.353464	needs",
-4.42008	"and
-4.3443174	sufficient
-5.353464	'deductible'
-4.42008	requirements
-4.8977313	discourage
-5.353464	malingering
-5.044178	unnecessary
-5.353464	overcrowding
-4.8977313	hospitals.
-5.353464	socialized
-5.044178	medicine.
-5.353464	prepayment
-4.6285195	absolute
-4.088946	freedom
-3.9032664	choice
-5.353464	guaranteed.
-4.3443174	Every
-4.380549	choose
-4.6285195	doctor
-5.353464	hospital".
-5.353464	#WOULDN'T
-5.353464	PAY
-5.353464	DOCTORS#
-4.78841	bills.
-5.044178	Apart
-4.2508526	President's
-5.044178	ambitious
-5.353464	enlarge
-4.566314	schools.
-4.151113	nation's
-5.1678615	92
-4.8977313	47
-4.2508526	handle
-4.198126	student
-4.78841	load
-3.8556166	needed
-4.380549	rising
-4.78841	care.
-4.463574	Moreover,
-4.5119133	qualified
-3.5193517	young
-3.5990603	going
-4.701148	medicine
-5.353464	dentistry
-3.929207	can't
-4.566314	afford
-5.353464	#CONTRIBUTIONS
-5.353464	SCHOOLS#
-4.8977313	scholarship
-4.3108773	contributions
-4.1739836	equal
-5.044178	$1,500
-5.1678615	one-fourth
-4.6285195	students.
-3.9862578	based
-4.78841	need,
-5.044178	$2,000
-5.353464	student.
-3.5352437	government
-5.353464	"cost
-5.353464	education"
-5.353464	grants.
-4.108696	programs
-5.353464	5.1
-4.5119133	21
-5.1678615	1966.
-5.353464	"matching
-5.1678615	grants"
-5.044178	totaling
-5.044178	700
-5.1678615	constructing
-5.353464	enlarging
-4.2236896	capacity
-4.2798285	existing
-4.6285195	ones.
-4.8977313	#MORE
-5.353464	NURSING
-5.353464	HOMES#
-3.4796143	area
-5.353464	"community
-5.353464	services",
-5.1678615	doubling
-4.2236896	dollar
-4.78841	construction.
-3.3937552	another
-5.353464	"initial"
-5.1678615	appropriation
-5.353464	"stimulatory
-4.2508526	improve
-5.044178	unspecified
-4.42008	sum
-4.8977313	experimental
-4.42008	field,
-4.566314	children's
-5.353464	bureau.
-3.5517392	national
-5.353464	institute.
-5.353464	#ASKS
-5.353464	RESEARCH
-5.353464	FUNDS#
-5.044178	vocational
-5.353464	rehabilitation.
-3.2437422	how
-4.566314	much.
-3.2663825	For
-4.8977313	increase,
-5.353464	millions,
-4.42008	matching
-3.8908548	building
-5.353464	facilities.
-4.8977313	propose
-5.353464	increasing,
-5.353464	amount,
-5.353464	540
-4.0519524	direct
-4.701148	combine
-5.353464	"indispensable
-4.2508526	elements
-3.8126814	sound
-4.8977313	program-
-4.0700555	people,
-4.78841	knowledge,
-4.78841	services,
-4.701148	facilities,
-5.353464	#REACTION
-4.6285195	AS
-5.044178	EXPECTED#
-4.8977313	Congressional
-4.42008	reaction
-3.5352437	along
-4.463574	lines.
-5.1678615	Legislators
-4.6285195	placing
-5.353464	aged-care
-4.8977313	criticized
-5.044178	plan.
-4.1739836	Those
-4.8977313	backed
-4.8977313	hailed
-5.1678615	message.
-3.8787882	Republican
-5.1678615	Leader
-5.1678615	Dirksen
-5.353464	[Ill&]
-5.1678615	Halleck
-5.353464	[Ind&]
-4.701148	persuade
-3.929207	change
-5.1678615	compulsory
-5.353464	insurance.
-4.6285195	voluntary
-5.353464	enacted
-4.380549	first.
-4.78841	Speaker
-4.3443174	Rayburn
-5.1678615	[D&,
-5.353464	Tex&]
-4.6285195	mighty
-3.6738968	fine
-5.044178	thing",
-5.1678615	prediction
-4.8977313	fate
-5.353464	hastily
-5.044178	pressure,
-4.78841	tonight
-4.701148	confirmed
-4.8977313	Weaver
-4.034574	housing
-5.353464	chief.
-4.198126	Only
-4.129387	11
-4.034574	floor
-3.7377687	record
-4.566314	vote.
-4.8977313	scattered
-5.353464	"ayes"
-5.353464	"noes"
-5.044178	heard.
-5.353464	Customary
-4.3108773	rules
-5.044178	ignored
-4.0017734	speed
-3.8908548	Negro
-4.017864	leader
-4.8977313	administrator
-5.1678615	agency.
-3.929207	years,
-4.6285195	Presidential
-5.353464	appointments,
-4.78841	cabinet
-5.353464	rank,
-4.0519524	immediate
-4.0519524	rule
-4.701148	requiring
-4.0700555	hour
-4.6285195	floor.
-5.353464	#ENFORCE
-4.701148	BY
-5.353464	DEMAND#
-3.8670478	demand
-4.701148	Wayne
-5.044178	Morse
-5.353464	Ore&]
-4.380549	connection
-4.8977313	Eisenhower's
-4.8977313	selections
-4.6285195	1953
-4.088946	Kennedy's
-4.6285195	1961.
-5.353464	_OSLO_
-4.380549	positive
-4.6285195	element
-4.78841	emerge
-5.044178	Oslo
-3.7553205	North
-4.3443174	Atlantic
-5.1678615	Treaty
-4.6285195	Organization
-4.380549	Foreign
-5.1678615	Ministers
-5.353464	freer,
-5.353464	franker,
-4.78841	wider
-5.353464	discussions,
-5.1678615	animated
-4.566314	mutual
-4.1739836	understanding
-3.6248062	past
-4.8977313	meetings.
-3.929207	organization
-3.9567964	that,
-4.8977313	nature,
-4.8977313	proceed
-4.3443174	route
-3.8556166	step
-3.3123033	without
-4.0519524	dramatic
-4.8977313	changes.
-5.353464	Oslo,
-5.1678615	ministers
-4.0700555	met
-4.463574	climate
-5.353464	candor,
-4.42008	genuine
-4.0700555	attempt
-5.353464	another's
-4.5119133	problems.
-4.108696	atmosphere
-3.9567964	particularly
-5.044178	noticeable
-4.129387	concerned
-5.353464	"colonialist"
-4.3108773	powers
-5.1678615	never,
-3.9160433	time,
-5.353464	nightmare
-5.1678615	clash
-4.3108773	trouble
-4.5119133	Africa,
-5.353464	exacerbated
-5.1678615	difficulties,
-5.044178	changes,
-5.353464	tragedies
-4.5119133	facing
-3.9862578	them,
-4.5119133	allies
-5.044178	intellectually
-5.1678615	emotionally
-5.353464	disapprove
-4.701148	circumstances
-4.5119133	troubles
-4.8977313	about,
-5.353464	conspicious
-5.353464	absence.
-5.353464	#EXPLOSION
-5.353464	AVOIDED#
-5.353464	Portugal,
-3.3155446	few
-3.9160433	weeks
-3.8126814	ago
-5.353464	rumored
-4.2798285	walk
-4.42008	~NATO
-3.929207	Council
-5.044178	critics
-5.1678615	Angola
-3.9427826	policy
-4.2236896	prove
-5.353464	harsh,
-5.353464	relaxation
-4.8977313	tension.
-4.701148	remarkably
-5.353464	courteous,
-4.5119133	explanation
-3.9567964	basic
-4.380549	positions
-5.353464	unchanged,
-4.701148	explosion
-5.1678615	council.
-4.380549	bitter
-5.044178	surprises
-4.42008	~UN
-3.8336186	General
-4.3108773	Assembly
-5.353464	members'
-5.353464	votes,
-5.1678615	ad
-5.353464	hoc
-5.1678615	topics
-4.3443174	discussed
-5.044178	advance.
-4.8977313	Canada
-4.129387	somewhat
-5.1678615	allied
-4.2798285	cars
-4.463574	track
-3.8556166	behind
-5.353464	locomotive.
-3.8556166	Even
-5.353464	Norway,
-3.9160433	daily
-5.044178	manifestations
-4.151113	atomic
-4.151113	arms
-3.7736118	heart
-5.353464	northernmost
-5.044178	alliance,
-4.3108773	closer
-4.6285195	line.
-4.6285195	negative
-3.5517392	side
-4.198126	balance
-4.566314	sheet
-4.8977313	disappointment
-3.2409933	United
-3.4748933	States
-3.9160433	leadership
-4.380549	hoped
-4.701148	for.
-5.1678615	diplomat
-4.463574	described
-4.8977313	tenor
-3.8336186	Secretary
-4.566314	Dean
-5.044178	Rusk's
-4.701148	speeches
-5.353464	"inconclusive".
-5.1678615	hastened
-3.8787882	add
-4.566314	policies
-3.6117425	always
-5.044178	clear,
-2.8493912	Mr&
-4.463574	analysis
-3.9427826	various
-5.044178	global
-4.1739836	danger
-3.9712772	points
-5.353464	setbacks
-4.8977313	West,
-4.2798285	firmly
-4.380549	fixed
-4.2798285	policy.
-5.353464	#EXPLORATORY
-5.353464	MOOD#
-5.353464	vagueness
-5.1678615	tactical
-4.566314	appreciation
-5.353464	semipublic
-5.353464	affair,
-4.2236896	fewer
-3.55738	Soviet
-5.044178	correspondents
-5.353464	accredited.
-4.2798285	impression
-3.3423834	during
-4.42008	days,
-5.1678615	popularity,
-3.4136815	came
-5.1678615	tentative
-5.353464	exploratory
-3.9862578	frame
-4.6285195	mind,
-4.8977313	listen
-4.108696	learn
-5.353464	enunciate
-3.9160433	firm
-5.044178	scale
-4.42008	detailed
-4.701148	application
-3.7292519	individual
-5.1678615	spots.
-4.463574	himself,
-5.044178	speech,
-3.6314883	gave
-3.8336186	idea
-4.198126	tremendous
-4.701148	march
-4.2508526	events
-4.0519524	inside
-5.044178	preoccupied
-4.380549	months.
-4.701148	core
-4.8977313	concerned,
-5.353464	reiterated
-5.044178	States'
-4.78841	profound
-5.044178	attachment
-5.353464	"cornerstone"
-3.746456	foreign
-4.8977313	policy,
-3.5352437	nuclear
-5.1678615	submarines
-4.463574	eventually
-5.353464	~NATO's
-4.8977313	disposal
-4.566314	European
-5.1678615	waters.
-4.8977313	solemnly
-4.6285195	repeated
-5.1678615	warning
-4.0700555	Union
-3.8444784	stand
-5.1678615	setback
-4.78841	Berlin,
-5.044178	affirmation
-3.5747554	once
-3.6592956	again
-5.353464	whole.
-5.353464	#CONFLICT
-5.353464	SURVEYED#
-5.1678615	secretary's
-4.0519524	greatest
-4.566314	achievement
-3.8126814	perhaps
-5.353464	rekindling
-4.8977313	realization
-5.044178	East-West
-5.353464	friction,
-5.044178	wherever
-3.4843872	around
-5.1678615	globe,
-5.044178	essence
-4.2508526	entirely
-3.696762	different
-5.353464	societies,
-4.2508526	treated
-4.380549	regard
-5.044178	geographical
-4.2236896	distance
-3.9862578	lack
-4.42008	apparent
-5.1678615	connection.
-3.929207	spring
-5.1678615	impetus
-4.129387	main
-5.353464	directions:
-4.6285195	more,
-5.353464	deeper,
-5.044178	timely
-5.1678615	consultation
-3.6813855	within
-4.701148	Economic
-5.353464	Cooperation
-4.6285195	Development
-5.1678615	(when
-5.353464	ratified)
-4.129387	method
-5.1678615	coordinating
-4.8977313	underdeveloped
-5.1678615	countries,
-4.8977313	strengthening
-4.3108773	conventional
-3.7736118	forces
-4.463574	maintenance
-5.353464	deterrent.
-5.353464	"threshold",
-5.1678615	called,
-5.353464	alliance's
-3.9032664	difficult
-3.8444784	months
-4.6285195	come.
-3.9567964	Each
-5.1678615	ally
-4.0700555	laid
-4.463574	down,
-3.3321235	never
-3.9567964	completely
-5.353464	fulfilled.
-5.1678615	_WASHINGTON_
-4.2236896	moves
-5.353464	haltingly
-4.5119133	Geneva
-4.034574	conference
-4.034574	Laos
-5.353464	erupts
-5.1678615	optimism
-3.3937552	here
-4.129387	Communists
-5.1678615	docile
-4.2236896	table
-3.5928555	military
-4.3108773	ground
-4.42008	Laos.
-4.3108773	States,
-5.353464	explain,
-4.566314	mainly
-3.9862578	interested
-4.380549	setting
-3.9160433	international
-5.044178	inspection
-4.017864	prevent
-3.666535	Communist
-4.5119133	attacks
-4.42008	neighboring
-5.1678615	Thailand
-3.8908548	South
-4.3108773	Viet
-4.8977313	Nam.
-4.8977313	count
-4.380549	neutral
-3.9712772	countries
-4.42008	attending
-4.380549	this.
-4.198126	hopes
-4.701148	Lao
-5.1678615	Cabinet
-5.1678615	dominated.
-4.5119133	acceptable
-4.0700555	formula
-4.8977313	possibility.
-5.353464	#POLICIES
-5.353464	MODIFIED#
-5.044178	inclination
-5.1678615	facto
-4.8977313	cease-fire
-4.566314	Laos,
-4.463574	insist
-5.1678615	verification
-3.8787882	control
-4.463574	commission
-5.044178	participating
-4.701148	conference.
-5.1678615	modifications
-4.8977313	compelled
-4.8977313	make.
-5.353464	excuses
-4.463574	chain
-4.42008	errors
-4.701148	administration.
-4.3443174	Its
-4.701148	spokesmen
-5.1678615	institute
-4.8977313	reforms
-3.8336186	economic
-4.463574	critical
-4.42008	areas.
-3.9032664	moving
-5.1678615	on-
-5.353464	confrontations
-4.1739836	showing
-4.129387	gain
-3.7377687	free
-5.353464	world-
-3.7292519	question
-5.353464	arises:
-4.034574	How
-4.5119133	dealing
-5.353464	aggression?
-5.1678615	Former
-5.1678615	Vice-President
-3.8670478	Richard
-4.380549	Nixon
-4.8977313	Detroit
-4.8977313	firmer
-4.78841	tougher
-4.78841	Union.
-4.2798285	feels
-4.42008	tendency
-3.3027225	too
-5.353464	conciliatory.
-5.353464	#~GOP
-5.353464	RESTRAINED#
-5.353464	Gallup
-5.353464	understates
-3.9160433	situation
-3.9427826	hardly
-5.044178	restrain
-4.5119133	raising
-5.1678615	Republicans,
-4.42008	power,
-5.353464	"amateurish
-5.1678615	monumental
-5.353464	blunders"
-5.044178	Cuba.
-5.353464	senator
-5.044178	correspondent
-4.5119133	constantly
-4.088946	attack
-4.701148	score.
-5.044178	reply,
-4.088946	unity
-3.696762	country
-4.42008	now.
-4.380549	politics
-3.8336186	others
-4.463574	wisdom
-4.129387	Senator
-5.353464	Thruston
-4.3443174	Morton
-5.353464	(~R)
-5.353464	Kentucky,
-3.6314883	National
-4.108696	responsible
-4.701148	outcome
-4.463574	coalition
-5.1678615	susceptible
-5.1678615	domination.
-5.1678615	assailed
-4.151113	direction
-5.1678615	Harvard,
-4.151113	Boston
-4.701148	University,
-5.353464	Brandeis,
-5.1678615	Technology
-5.353464	educators.
-5.353464	#DETENTE
-5.353464	URGED#
-5.353464	pleads
-4.6285195	invasion
-4.380549	Cuba
-5.353464	exile
-5.353464	groups".
-5.353464	recommends
-5.353464	"seek
-3.9160433	instead
-5.353464	detach
-4.129387	Castro
-4.380549	regime
-4.8977313	bloc
-4.2508526	diplomatic
-5.353464	detente
-4.566314	resumption
-4.151113	trade
-5.353464	relations;
-4.8977313	concentrate
-4.701148	constructive
-3.7927074	efforts
-4.3108773	Latin
-3.8556166	America
-4.129387	conditions
-5.044178	totalitarian
-4.78841	nationalism
-5.353464	feeds".
-4.6285195	Nixon,
-4.701148	part,
-4.6285195	intervention
-4.2236896	specific
-5.353464	provocation.
-3.9862578	clearly
-5.353464	shipped
-5.353464	tolerated.
-4.42008	Until
-4.380549	Cuban
-5.1678615	fiasco
-5.353464	victories
-4.8977313	observer
-5.1678615	blended
-5.353464	respected,
-5.1678615	generally,
-4.6285195	opinions
-5.044178	voiced
-5.353464	professors.
-5.353464	#AID
-5.353464	PLANS
-5.353464	REVAMPED#
-4.8977313	Very
-3.4388666	early
-4.566314	Kremlin
-5.1678615	channels,
-5.353464	disclosed,
-5.044178	react
-3.9427826	Eisenhower
-5.353464	formative
-3.8230238	period
-5.353464	Strenuous
-4.2236896	remove
-5.044178	pin
-5.353464	pricking
-5.353464	statements.
-5.353464	Policies
-4.78841	ban
-4.463574	negotiations
-4.78841	reviewed
-4.8977313	changed.
-3.8336186	thus
-3.4219153	far
-4.3443174	response
-5.1678615	kind.
-5.353464	revamped
-4.129387	emphasis
-4.5119133	encourage
-4.78841	reform
-5.1678615	recipient
-4.701148	nations.
-4.088946	looked
-3.5406728	show
-4.5119133	determination
-5.044178	sailing
-4.8977313	naval
-5.044178	fleet
-4.3108773	Southeast
-4.701148	Asian
-4.701148	waters
-5.044178	useless
-5.1678615	gesture.
-5.1678615	Again
-5.353464	"freeze"
-4.8977313	aided
-4.8977313	Pathet
-4.8977313	faster
-5.044178	rate.
-3.1893823	And
-5.044178	territory
-4.6285195	exposed
-4.380549	huge
-5.353464	build-up,
-5.044178	acclaimed
-4.6285195	performing
-4.8977313	"great
-5.353464	service"
-4.566314	Asia
-5.1678615	Organization.
-4.78841	~SEATO
-5.044178	steamed
-4.017864	prepared
-5.1678615	contingency
-5.353464	coping
-4.463574	losses
-5.353464	provocation
-3.7830548	want
-4.129387	risk
-5.1678615	all-out
-3.5747554	war
-5.353464	(Some
-4.0700555	nations
-5.353464	disagreed,
-5.353464	however.)
-5.353464	complication
-4.566314	concluded
-4.8977313	ill
-4.8977313	suited
-5.044178	ally,
-4.6285195	unlike
-4.151113	determined
-4.78841	neighbors,
-4.2236896	declared
-4.088946	favor
-5.353464	neutralized
-4.5119133	pro-Western
-4.2798285	government,
-4.5119133	helped
-5.353464	revolt
-4.78841	Souvanna
-5.353464	Phouma
-5.353464	"neutralist"
-4.088946	appear
-5.044178	spark
-4.2798285	fighting
-3.6813855	spirit
-4.3443174	Royal
-3.8670478	certainly
-4.463574	energy
-4.701148	displayed
-3.8230238	clear
-5.353464	hilt.
-3.2144217	If
-4.2236896	ideas
-4.463574	Prince
-5.1678615	Phouma,
-5.1678615	trusting
-5.044178	Communists,
-4.3443174	gradually
-5.1678615	relinquish
-4.380549	factor
-5.353464	Fulbright
-5.353464	(~D)
-5.044178	Arkansas,
-4.6285195	Relations
-4.0700555	25
-5.1678615	erred
-3.5747554	half
-5.353464	"encouraging
-5.353464	removal"
-5.353464	Souvanna.
-4.566314	extraordinary
-4.5119133	check
-4.78841	rapid
-3.9862578	growth
-4.5119133	juvenile
-5.353464	delinquency
-4.380549	States.
-4.5119133	deeply
-3.6382751	problem
-5.353464	"vitality
-5.353464	nation".
-3.605355	important
-5.1678615	assertion
-4.2236896	executive
-5.044178	establishing
-5.044178	Juvenile
-5.1678615	Delinquency
-5.353464	Crime,
-4.2508526	supported
-4.8977313	assisted
-4.78841	Citizens
-5.044178	Advisory
-4.2798285	recognized
-4.6285195	authorities
-4.78841	asks
-4.6285195	cooperation
-5.1678615	enactment
-4.701148	specified
-5.353464	combating
-5.1678615	disturbing
-4.78841	crime
-4.8977313	trend.
-5.353464	#OFFENSES
-5.353464	MULTIPLY#
-4.566314	Attorney
-5.1678615	General,
-5.353464	Health,
-5.353464	Welfare,
-4.2798285	Labor
-5.353464	coordinate
-4.701148	assist
-4.78841	communities
-4.701148	cope
-5.353464	Simultaneously
-4.1739836	David
-5.353464	Hackett,
-5.353464	ot
-4.8977313	Youth
-5.353464	Crime.
-3.6521752	sense
-5.1678615	urgency
-4.6285195	stems
-5.353464	ond
-5.1678615	arrests
-4.6285195	doubled
-5.1678615	1948,
-5.353464	offenders.
-4.017864	Among
-4.108696	Federal
-5.044178	Bureau
-5.1678615	Investigation
-4.463574	1959,
-5.353464	larceny
-4.2798285	18
-4.8977313	age.
-4.2798285	Providence
-4.78841	organize
-4.2236896	civil
-5.353464	setup
-5.353464	appointing
-4.463574	full-time
-4.701148	Raymond
-3.8787882	H&
-5.1678615	Hawksley,
-4.6285195	~CD
-4.701148	head,
-5.353464	believes.
-4.566314	Hawksley
-5.353464	"or
-4.0700555	anyone
-4.198126	else
-5.353464	locally"
-4.8977313	outline
-4.78841	earliest
-4.463574	state's
-4.8977313	treasurer,
-5.1678615	part-time
-5.044178	director.
-5.1678615	Noting
-4.463574	handed
-4.42008	Defense
-4.0519524	responsibility
-4.129387	program,
-4.463574	salary
-4.129387	expressed
-4.2508526	opinion
-5.1678615	hire
-5.353464	$3,500
-4.0519524	basis
-5.1678615	defray
-4.129387	believed
-4.6285195	residents
-4.701148	job.
-3.3636603	men
-4.6285195	Fire
-5.1678615	Laughlin,
-4.78841	Along
-4.151113	headquarters
-4.78841	pertinent
-5.353464	centralized.
-4.2508526	advantage
-3.4260914	come
-3.7046595	having
-4.78841	eligible
-4.2798285	apply
-4.129387	financial
-3.8025796	equipment
-5.353464	Matching
-5.353464	procurement
-5.353464	radios,
-5.353464	sirens
-4.566314	rescue
-4.8977313	trucks,
-4.8977313	vehicle
-4.198126	Central
-5.1678615	Station.
-5.044178	assign
-4.6285195	trucks
-5.1678615	Riverside
-4.2508526	section
-5.1678615	Rumford
-4.108696	area.
-4.8977313	Speaking
-4.380549	status
-4.5119133	city,
-5.1678615	bet
-3.9862578	hundred
-3.4260914	know
-4.380549	enemy
-5.1678615	Narragansett
-5.044178	Race
-5.353464	Track
-4.42008	grounds
-4.42008	assembly
-4.8977313	point,
-5.1678615	drive-in
-4.2236896	theater
-5.1678615	Seekonk
-4.3108773	point.
-4.6285195	knowing
-4.8977313	assemble
-3.8556166	air
-4.0519524	Such
-4.108696	vital
-5.1678615	information,
-4.088946	frequently
-4.2236896	regular
-4.8977313	intervals
-4.78841	know.
-5.1678615	fails
-4.108696	consider
-3.9032664	call
-4.42008	September
-3.929207	developed
-5.353464	locally.
-3.5867379	things
-4.380549	do,
-4.566314	classes
-4.8977313	aid.
-5.1678615	drifts
-4.0017734	level
-4.3443174	government.
-4.8977313	examine
-5.044178	revisions
-4.8977313	mind.
-4.463574	Governor
-4.8977313	Notte
-3.7830548	name
-4.198126	changes
-5.1678615	Assembly.
-3.8556166	move
-5.353464	law"
-4.8977313	controversy
-3.7046595	form
-4.034574	letter
-3.5747554	Miss
-4.2236896	Mary
-5.1678615	Grant,
-5.1678615	deputy
-5.1678615	clerk
-5.353464	Falls.
-4.5119133	copy
-4.566314	released
-5.353464	press.
-5.353464	responding
-4.380549	adopted
-4.8977313	Falls
-4.0700555	July
-3.7046595	house
-5.353464	Grant.
-5.044178	urges
-3.7292519	complete
-4.2798285	eye
-5.044178	revision
-5.353464	legislature.
-5.353464	Legislative
-4.380549	perform
-5.044178	review,
-4.8977313	Atty&
-4.108696	Gen&
-4.0700555	Joseph
-5.1678615	Nugent
-3.8336186	"the
-5.353464	views".
-5.353464	appoint
-5.353464	Nugent's
-5.1678615	cooperation,
-4.108696	expect
-5.353464	hearings",
-4.2508526	views
-5.1678615	religious,
-3.8908548	labor
-5.353464	special-interest
-4.108696	groups
-4.701148	affected
-5.353464	laws".
-4.198126	wrote
-4.8977313	Grant
-5.1678615	"with
-4.6285195	continuous
-5.1678615	confronts
-4.701148	enforcement
-4.3108773	officers
-4.8977313	regulating
-5.353464	sales".
-4.701148	advised
-5.1678615	enforce
-4.129387	blue
-4.5119133	laws.
-4.8977313	Should
-5.353464	shirking,
-4.701148	situation.
-4.5119133	activity
-3.8025796	across
-3.8230238	line
-5.044178	statutes,
-4.6285195	Bay
-5.353464	dating
-4.78841	instances
-5.044178	colonial
-4.566314	times,
-5.044178	severely
-4.566314	limit
-4.2798285	types
-5.353464	merchandise
-4.3108773	sold
-5.1678615	Sabbath.
-4.1739836	concern
-3.7927074	especially
-4.8977313	foods
-3.8336186	placed
-4.088946	list
-4.566314	neighborhood
-5.044178	grocery
-4.0700555	variety
-4.701148	stores
-4.5119133	Sunday.
-5.353464	"have
-4.0700555	chance
-4.6285195	compete
-5.353464	supermarkets
-5.353464	Sunday",
-5.1678615	council's
-3.378447	small
-5.1678615	shops
-5.353464	"must
-5.1678615	retained,
-5.353464	community",
-5.1678615	"also
-5.353464	livelihood
-4.3108773	thousands
-5.353464	neighbors".
-5.044178	declares
-5.353464	licenses
-5.353464	revenue"
-5.353464	"large
-5.353464	supermarkets,
-4.6285195	factory
-5.353464	outlets
-5.1678615	business"
-5.353464	"operate
-5.353464	basis",
-5.353464	contended,
-4.701148	shopping
-5.353464	community".
-4.8977313	Liberals
-5.353464	conservatives
-5.353464	parties-
-5.353464	Republican-
-4.463574	independent
-5.1678615	parties,
-5.044178	Reama,
-4.8977313	nationally
-3.8336186	known
-5.044178	labor-management
-4.78841	expert,
-5.1678615	Reama
-4.8977313	Rotary
-3.9862578	Club
-4.2798285	luncheon
-5.1678615	Sheraton-Biltmore
-4.5119133	Hotel
-5.353464	"welfare"
-4.088946	type
-4.701148	enterprise
-5.353464	regrouping
-3.9862578	average
-5.353464	voter
-4.5119133	pull
-4.42008	lever
-4.0017734	day.
-5.353464	"confessing
-3.6592956	member
-4.5119133	Socialist
-5.353464	1910".
-5.044178	That,
-4.566314	added,
-3.9567964	man,
-5.353464	machinist
-5.353464	toolmaker
-5.044178	trade.
-4.6285195	"That
-4.463574	law.
-3.5928555	Some
-4.42008	fellow
-5.353464	grooming
-3.5807054	me
-5.1678615	Party.
-5.1678615	steered
-5.044178	track.
-5.353464	track-
-5.353464	track".
-5.353464	1910,
-5.044178	utilities
-5.353464	pooling
-5.1678615	resources.
-5.044178	gaining
-5.044178	victory,
-3.9160433	original
-5.044178	parties.
-4.6285195	retired
-4.3108773	vice
-5.353464	Screw
-4.151113	Co&
-4.8977313	1955
-5.353464	"Both
-4.42008	parties
-3.3155446	us
-4.566314	gross
-5.353464	product-
-3.9567964	neither
-5.353464	favors
-5.044178	wage
-4.6285195	increases
-5.353464	workers-
-4.701148	"but
-4.380549	manufacturers
-4.3108773	caught
-4.6285195	profit
-5.353464	squeeze"-
-5.044178	conditioned
-5.353464	prices,
-5.1678615	added.
-5.353464	Indicating
-3.8787882	turned
-5.353464	1910
-5.044178	philosophy,
-4.151113	said:
-5.044178	dividing
-4.0700555	everything
-5.1678615	own".
-3.605355	really
-5.1678615	retired,
-4.463574	engaged
-4.0519524	industrial
-5.353464	counseling.
-4.8977313	bearing
-5.1678615	1,700
-4.6285195	Johnston
-4.463574	taxpayers
-3.9862578	presented
-3.9712772	town
-5.1678615	obtaining
-4.2508526	charter
-4.701148	town.
-5.353464	Martinelli,
-4.8977313	Group
-5.1678615	Johnston,
-5.1678615	transferred
-3.8908548	hand
-4.42008	suggestion
-5.353464	Fortin
-5.353464	Sr&.
-5.353464	governs
-4.6285195	referred
-5.1678615	canvassers
-4.701148	Martinelli
-4.701148	happens
-4.8977313	post.
-4.5119133	explained
-4.6285195	assure
-5.353464	scheduling
-4.1739836	60
-5.044178	completes
-4.108696	difference
-4.78841	arose
-5.353464	Bourcier,
-5.353464	solicitor,
-4.566314	exact
-5.353464	handled.
-4.701148	has,
-4.566314	weeks,
-5.1678615	Bourcier
-5.044178	instead.
-5.353464	justices
-5.353464	favoring
-5.1678615	procedures.
-4.566314	assured
-4.2798285	correct
-4.3443174	possible.
-4.78841	strategy
-4.78841	movement.
-4.151113	mind
-5.1678615	present,
-4.78841	undoubtedly
-5.044178	endorse
-5.353464	comes.
-5.044178	"After
-5.044178	inspiring
-4.0700555	this,
-3.568886	think
-4.566314	it",
-4.108696	"It
-3.76437	hope
-5.353464	spearhead
-5.353464	movement".
-4.566314	surprised
-4.0519524	running
-5.353464	non-partisan
-4.8977313	posts
-5.1678615	commission.
-5.044178	"Our
-4.42008	goal
-4.78841	awareness
-5.353464	movement",
-5.044178	indicated,
-5.353464	town".
-5.044178	timetable
-3.9712772	followed
-5.353464	September.
-4.034574	movement
-3.8908548	started
-4.8977313	yesterday,
-4.78841	town's
-5.353464	insurgent
-4.463574	speaking
-4.463574	model
-4.42008	municipal
-4.2508526	league
-5.353464	charter.
-5.353464	Increasing
-5.044178	indicated.
-5.353464	Misunderstanding
-4.034574	meaning
-4.566314	cited
-5.353464	"false
-5.353464	pretenses".
-5.353464	signers
-5.353464	affixed
-5.044178	names,
-4.8977313	learned,
-4.78841	consent
-4.701148	provision
-3.9567964	included
-5.1678615	Sanitary
-4.78841	sewer
-5.353464	Action
-4.8977313	ordinance
-5.044178	motorists
-5.044178	plead
-4.78841	guilty
-4.2508526	minor
-4.129387	traffic
-4.78841	offenses
-5.353464	fines
-4.3443174	station
-5.044178	Monday's
-4.6285195	Town
-4.463574	meeting.
-5.353464	SanAntonio
-5.1678615	Solicitor
-4.78841	Michael
-5.353464	Abatuno
-4.8977313	draft
-5.353464	ordinance.
-3.489213	At
-4.78841	Assembly,
-4.566314	authorized
-5.044178	adopt
-5.044178	effective.
-4.8977313	Nothing
-5.044178	legislation.
-5.1678615	Sixth
-5.1678615	disposition.
-4.6285195	Local
-5.353464	hesitated
-5.353464	prosecute
-4.034574	heavy
-5.044178	simplest
-5.1678615	offense.
-5.353464	_PLAINFIELD_-
-4.2508526	Mitchell
-4.2508526	Walter
-5.353464	~R-Bergen,
-5.353464	disagreed
-4.129387	value
-3.8908548	using
-4.8977313	remark
-5.1678615	Hughes,
-5.353464	"Campaigning
-5.1678615	carcass
-5.353464	Republicanism".
-5.353464	against,
-5.1678615	Dumont
-5.353464	~R-Warren
-4.3443174	spoke
-4.0017734	100
-4.129387	Park
-4.463574	Hotel.
-4.78841	controversial
-5.044178	Westfield
-4.701148	Young
-4.5119133	cocktail
-5.1678615	Scotch
-4.8977313	Plains
-4.566314	Country
-4.8977313	Club.
-4.8977313	greeted
-4.8977313	chorus
-5.1678615	boos
-4.5119133	500
-4.108696	women
-5.353464	Trenton
-5.1678615	forum
-4.6285195	Federation
-4.78841	Women's
-5.353464	Clubs.
-4.42008	Monday,
-4.42008	intention
-5.353464	Republicanism,
-4.42008	stopped
-4.6285195	beating
-5.353464	lifeblood
-5.353464	congealed
-5.044178	retired.
-3.8556166	Now
-4.2236896	he's
-5.1678615	gone,
-4.3108773	sell
-5.353464	tattered
-4.017864	remains
-5.044178	state".
-3.9160433	love
-3.9862578	considered
-5.1678615	mediocre
-3.2964509	**h
-3.76437	nothing
-5.353464	leadership".
-4.017864	fall
-4.5119133	"How
-3.8670478	common
-5.1678615	decency
-4.8977313	asked.
-4.2798285	secretary
-4.2236896	proud
-5.044178	absorbed
-5.353464	philosophy"
-5.353464	adminstration.
-5.353464	closeness
-5.353464	fall's
-5.1678615	Republicanism
-4.129387	dead
-4.701148	issue.
-5.353464	#REGRETS
-5.353464	ATTACK#
-5.1678615	regretted
-4.42008	"He
-4.1739836	wrong
-5.353464	inject
-5.353464	campaign",
-5.1678615	"because
-5.044178	waged
-4.1739836	issues
-5.353464	re-arguing
-5.353464	campaign".
-4.78841	respond
-3.7377687	either
-4.78841	applause
-5.1678615	Hughes'
-5.353464	remark.
-4.8977313	merit
-3.6117425	open
-4.8977313	primary.
-4.8977313	launched
-5.353464	continuance
-4.78841	passenger
-4.42008	service,
-4.088946	proper
-4.5119133	uses
-4.701148	surplus
-5.044178	Port
-5.353464	Authority,
-4.5119133	Jersey
-4.3108773	attractive
-4.3108773	industry.
-5.353464	#DECRIES
-5.353464	JOBLESSNESS#
-5.1678615	decried
-3.9427826	rate
-4.6285195	unemployment
-5.044178	Meyner
-5.353464	Republican-controlled
-5.353464	"Must
-3.9712772	share
-4.701148	blame
-5.353464	this".
-5.353464	Plainfield
-5.353464	Mack
-5.353464	Truck
-4.78841	plant,
-3.9427826	industry
-3.452029	until
-5.1678615	reform.
-3.746456	am
-4.129387	income
-5.353464	time",
-5.044178	unhappy
-4.0519524	minutes
-4.463574	speech
-5.1678615	questions,
-4.463574	saved
-5.353464	barbs
-5.353464	Mitchell.
-5.353464	centralization
-3.9032664	looks
-4.108696	Administration
-4.5119133	transportation
-5.353464	crises.
-4.198126	saying
-5.353464	centralization,
-5.353464	ways",
-4.2508526	faced
-5.1678615	utilities,
-4.198126	motor
-5.044178	vehicles,
-4.3443174	challenge
-4.108696	stands
-5.353464	issue".
-5.1678615	#DEFENDS
-5.353464	IKE#
-5.353464	Earlier,
-5.1678615	statement:
-5.044178	resent
-5.353464	Hughes.
-4.2508526	reference
-5.353464	'discredited
-5.353464	carcass'
-5.353464	'tattered
-5.353464	remains'
-5.353464	president's
-5.1678615	insult
-4.088946	victory
-4.6285195	history,
-4.1739836	twice
-5.044178	overwhelmingly
-4.2508526	symbol
-3.2275043	world
-5.353464	peace-loving
-4.5119133	intentions
-4.129387	understand
-4.3108773	seeking
-3.696762	position
-3.452029	life
-4.701148	demonstrate
-4.2236896	judgment
-4.2236896	bad
-5.044178	taste.
-5.044178	"Such
-5.353464	vicious
-5.044178	origin
-4.129387	desire
-3.9032664	try
-5.353464	condemning
-5.353464	stature.
-5.353464	rebound
-5.353464	discredit".
-5.353464	#SEES
-5.353464	JONES
-5.353464	AHEAD#
-5.1678615	Sandman,
-5.353464	~R-Cape
-4.701148	May,
-4.2236896	ahead
-5.044178	opponents
-5.353464	nomination.
-5.353464	addressing
-5.044178	Military
-5.1678615	Hotel,
-5.1678615	Newark,
-4.701148	Essex
-3.7830548	leaders
-4.6285195	managers
-5.353464	Jones.
-5.044178	Sandman
-4.701148	gathering
-4.2508526	indicate
-4.2798285	chosen
-5.353464	Party's
-5.353464	nominee
-4.2508526	majority
-4.3108773	announcement
-5.1678615	Clifford
-4.78841	Case
-5.1678615	~R-N&J&,
-4.1739836	spend
-5.1678615	campaigning
-5.353464	giveaway.
-4.78841	desperate
-5.353464	prop
-5.1678615	sagging
-5.044178	proven
-4.034574	answer
-5.1678615	Jersey's
-5.1678615	witnessed
-4.108696	project
-4.3108773	image
-4.566314	Washington.
-3.5928555	That
-5.1678615	failed.
-5.1678615	witnessing
-4.566314	transfer
-4.78841	glow
-5.353464	Case's
-5.1678615	candidacy
-5.353464	fail".
-5.1678615	Harriet
-5.353464	Copeland
-5.1678615	Greenfield
-5.044178	330
-5.353464	Woodland
-4.701148	Ave&,
-5.353464	Westfield,
-4.8977313	Women
-5.353464	committeewoman.
-5.353464	Supervisor
-5.353464	Weldon
-5.353464	Sheets,
-5.353464	nomination,
-4.0700555	paper
-5.353464	ballots
-5.1678615	proposal,
-5.044178	Sheets
-4.5119133	represents
-3.8230238	necessary
-4.8977313	democracy
-5.353464	"lip
-5.1678615	word".
-4.8977313	financing
-4.5119133	purchase
-5.1678615	machines,
-5.1678615	repay
-4.8977313	10-year
-5.1678615	charge.
-4.8977313	exclusive
-4.8977313	machines
-4.78841	January,
-5.353464	1964.
-3.9427826	Although
-5.1678615	mandatory
-5.353464	impinging
-4.5119133	basically
-5.353464	distasteful,
-4.2236896	results
-5.353464	transcended
-5.1678615	Sheeran
-5.353464	Orange,
-4.8977313	nomination
-4.566314	Edward
-5.353464	Roos,
-5.044178	Orange
-4.151113	safety
-5.353464	commissioner.
-5.353464	Sheeran,
-4.78841	~FBI
-5.044178	organization's
-5.353464	Freeholder
-5.353464	MacDonald,
-5.353464	vacancy
-5.044178	Neil
-5.353464	Duffy,
-5.1678615	Appeals.
-4.566314	"My
-3.7830548	experience
-5.353464	commissioner",
-5.353464	Roos
-3.8556166	shown
-4.0700555	filled
-4.8977313	experience,
-5.044178	preferably
-5.1678615	lawyer.
-4.3108773	Jim
-4.78841	fits
-5.353464	description".
-5.1678615	_TRENTON_-
-5.353464	Seidel,
-4.8977313	warden
-4.8977313	Conservation
-5.353464	Development,
-5.044178	36
-4.2508526	service.
-5.044178	citation
-4.6285195	Commissioner
-5.353464	Salvatore
-5.1678615	Bontempo
-5.044178	credits
-5.1678615	supervision
-4.42008	reduction
-4.78841	forest
-5.044178	fires
-5.353464	Seidel
-5.1678615	1925
-4.1739836	division
-5.353464	graduation
-5.353464	1921
-4.701148	Michigan
-5.353464	forestry
-3.8787882	private
-4.8977313	lumber
-5.353464	companies.
-4.3443174	October
-5.1678615	1944,
-4.701148	Forest
-5.1678615	Section.
-5.353464	supervision,
-5.353464	fire-fighting
-4.3443174	agency
-4.1739836	techniques
-5.1678615	plowing
-4.088946	lines
-4.2508526	established
-5.044178	tractor
-5.353464	plows
-4.42008	units
-5.044178	fighting.
-4.701148	expanded
-5.353464	modernized
-4.0017734	radio
-3.9712772	central
-4.78841	station.
-5.353464	briefing
-4.3443174	sessions
-4.1739836	district
-5.353464	wardens
-3.9862578	training
-5.353464	wardens.
-5.044178	credited
-4.78841	co-operative
-4.701148	co-operation
-4.3108773	Red
-4.8977313	Cross
-5.1678615	Education.
-5.353464	_BOONTON_-
-4.463574	debut
-4.5119133	bid
-5.1678615	pledge
-4.463574	corner
-3.9032664	nearly
-5.353464	Puddingstone
-5.353464	Inn:
-4.380549	"When
-4.1739836	you'll
-4.701148	think,
-5.353464	'You're
-5.1678615	man-
-4.2508526	you're
-4.5119133	we're
-4.78841	glad
-5.353464	elected'".
-4.198126	Democrats
-5.353464	resolve
-5.353464	just,
-5.1678615	expedient
-5.1678615	time".
-5.1678615	#ATTACKS
-5.353464	REPUBLICANS#
-5.353464	tripping
-3.8230238	feet
-3.8444784	popular
-5.1678615	slogans
-4.0017734	win
-4.78841	we'll
-5.1678615	liberal,
-5.353464	planned,
-4.2798285	forward
-5.1678615	looking,
-4.5119133	honest
-5.044178	We'll
-4.034574	talk
-5.353464	mouth
-5.353464	Hudson.
-4.8977313	"We'll
-4.1739836	truth
-5.044178	elect
-5.1678615	November".
-4.380549	signs
-5.353464	Republicans'
-5.044178	feeble
-3.7377687	shall
-5.353464	ahead".
-5.1678615	"become
-3.6521752	full
-4.8977313	partner
-5.1678615	courageous
-5.353464	Kennedy".
-5.044178	attraction
-3.9712772	stop
-5.353464	piracy
-3.9712772	Southern
-4.6285195	states,
-3.6738968	keep
-5.1678615	bloodstream
-5.353464	clean",
-5.044178	"To
-5.353464	hoodlums
-5.353464	infiltrating
-5.353464	1940s".
-5.353464	Calling
-5.353464	"party
-4.8977313	lives,
-5.1678615	breathes
-5.353464	people",
-4.8977313	asked,
-4.3443174	representative
-5.353464	springboard
-5.353464	Meyner's
-5.353464	"Green
-5.353464	Acres"
-5.1678615	tracts
-3.8670478	land
-5.353464	onrush
-4.566314	development.
-4.8977313	$60
-5.1678615	underwrite
-5.353464	#CONSERVATION
-5.353464	PLAN#
-5.1678615	$45
-5.1678615	$15
-5.353464	alloted
-5.1678615	municipalities
-4.463574	basis.
-5.044178	conquer
-5.353464	space-
-5.353464	conserve
-4.701148	pointing
-3.9160433	population
-5.353464	125,000
-5.044178	1950.
-5.353464	"Morris
-4.566314	rapidly
-4.566314	changing
-4.151113	unless
-4.380549	preserve
-4.151113	green
-4.566314	areas,
-5.353464	preserve".
-4.463574	comment
-5.044178	involved.
-5.353464	misconstrued
-4.8977313	sympathetic
-5.1678615	Republicans.
-5.353464	primary",
-5.353464	promised,
-5.1678615	"I'll
-4.78841	explicit
-3.7046595	bring
-4.6285195	strong,
-4.566314	dynamic
-4.566314	afraid
-5.044178	tangle
-5.353464	nominee".
-5.044178	Fifteen
-5.353464	retiring-
-5.353464	voluntarily-
-4.3443174	honored
-5.353464	colleagues.
-4.701148	members,
-3.5928555	whose
-5.1678615	four-year
-4.108696	terms
-5.353464	expire
-4.701148	carved
-4.198126	wooden
-5.1678615	elephants,
-5.044178	ivory
-5.353464	tusks,
-4.198126	remember
-4.8977313	by.
-5.353464	retirements
-4.151113	leaving
-4.6285195	presentation
-5.353464	Geraldine
-4.42008	Thompson
-5.044178	Bank,
-5.044178	stepping
-3.605355	She
-5.353464	committeewoman
-5.353464	1920s
-5.353464	adoption
-4.6285195	women's
-5.044178	suffrage
-5.1678615	amendment.
-5.353464	Resentment
-5.353464	welled
-4.2236896	Wagner
-4.2798285	Paul
-5.353464	Screvane
-5.353464	Abraham
-5.353464	Beame
-5.353464	mates.
-3.2606108	same
-5.1678615	anti-organization
-5.1678615	Liberal
-4.8977313	Mayor's
-5.044178	favorable.
-4.017864	opportunity
-4.463574	internal
-4.78841	resentment
-5.1678615	mates
-4.8977313	leaders.
-4.3108773	regarded
-4.463574	bigger
-4.380549	party.
-5.353464	#OPPOSITION
-5.353464	REPORTED#
-3.9160433	trying
-5.1678615	induce
-4.6285195	Controller
-4.5119133	Arthur
-5.044178	Levitt
-5.1678615	Brooklyn
-5.353464	Mayoral
-4.0700555	7
-5.1678615	contend
-5.1678615	rank
-4.2798285	file
-3.9427826	Their
-3.8444784	view
-5.353464	last-minute
-5.044178	proposing
-4.78841	ticket
-4.463574	emphasize
-4.8977313	weakness
-3.8230238	performance
-5.1678615	Mayor.
-4.8977313	rival
-5.353464	slate,
-5.044178	Representative
-5.353464	Buckley,
-5.044178	Bronx
-4.6285195	leader,
-4.3443174	T&
-5.353464	Sharkey,
-4.5119133	leader.
-5.353464	#MAYOR
-5.353464	VISITS
-5.353464	BUCKLEY#
-5.353464	usual,
-4.2508526	touch
-5.353464	Carmine
-4.0700555	G&
-4.6285195	De
-5.353464	Sapio,
-4.78841	Manhattan
-4.6285195	publicly
-4.8977313	believing
-5.1678615	Sapio
-4.463574	replaced
-4.0519524	Last
-4.42008	visited
-4.8977313	Buckley
-4.8977313	leader's
-4.1739836	discussion
-5.044178	Apparently
-4.1739836	key
-4.42008	acceptance
-4.8977313	choices
-5.044178	struggle.
-4.5119133	talks
-4.3443174	Washington,
-5.353464	assent
-5.044178	dropping
-4.3108773	Lawrence
-5.353464	Gerosa,
-4.1739836	lives
-5.353464	Bronx,
-5.353464	ticket.
-3.5630949	seems
-4.566314	assumed
-4.380549	pick
-5.1678615	Gerosa's
-5.1678615	successor.
-5.353464	#SCREVANE
-3.8230238	AND
-5.353464	BEAME
-5.353464	HAILED#
-4.78841	declined
-5.044178	interviews
-4.566314	reporters
-4.8977313	confirm
-4.463574	deny
-5.353464	Screvane,
-5.353464	Queens,
-4.463574	replace
-5.353464	Abe
-5.353464	Stark,
-5.353464	incumbent,
-5.353464	Beame,
-5.1678615	Brooklyn,
-5.353464	Gerosa
-5.353464	Controller.
-4.6285195	Irish
-5.353464	Counties
-5.353464	Feis
-4.8977313	Hunter
-5.1678615	Campus
-5.353464	Bronx.
-5.1678615	intentions,
-4.5119133	published
-5.1678615	yesterday's
-5.353464	Times.
-4.3443174	me.
-4.5119133	before,
-4.701148	announce
-5.353464	candidacy,
-4.6285195	definite
-5.353464	mates".
-5.353464	_BOSTON,
-4.78841	JUNE
-5.353464	16_-
-4.701148	wave
-4.8977313	corruption
-5.1678615	Massachusetts.
-4.8977313	tangible
-4.034574	feeling
-5.353464	revulsion
-5.044178	politics.
-5.044178	taxi
-4.1739836	driver
-5.1678615	visitor
-4.380549	remarks
-4.6285195	politicians
-4.6285195	"all
-5.353464	same".
-4.6285195	"It's
-5.353464	'See
-5.353464	Joe,
-5.353464	Jim'",
-4.566314	says.
-5.044178	out".
-4.78841	scientist
-4.5119133	writes
-5.353464	"alienated
-5.353464	voters",
-5.353464	"believe
-4.0700555	influence
-5.353464	corrupt,
-5.1678615	selfish
-3.9032664	beyond
-4.6285195	control.
-4.2236896	secret
-5.044178	conspiracy,
-4.566314	object
-5.353464	plunder
-5.353464	Corruption
-4.3108773	widely
-4.380549	identified
-5.353464	locale
-4.701148	Edwin
-5.353464	O'Connor's
-5.1678615	novel,
-5.353464	Hurrah".
-4.1739836	reasons
-5.044178	spotlight
-4.8977313	subject.
-4.8977313	succession
-5.353464	publicized
-4.8977313	scandals
-4.8977313	aroused
-5.353464	Graft
-4.8977313	highways
-3.929207	works
-5.353464	investigations.
-4.701148	attracted
-4.42008	ethical
-4.380549	reader
-4.701148	newspapers
-4.380549	escape
-5.1678615	petty
-5.353464	chicanery,
-5.1678615	worse,
-5.1678615	norm
-3.9567964	life.
-4.129387	Day
-5.044178	episode
-4.701148	reported.
-4.198126	Public
-5.044178	Works
-4.5119133	accused
-5.353464	$8,555
-4.78841	beach
-4.6285195	waterfront
-5.353464	investigate.
-4.8977313	18_-
-4.380549	starts
-4.42008	sharply
-4.701148	contrasting
-5.044178	forecasts
-5.1678615	chambers.
-5.1678615	opposition.
-5.353464	Southern-Republican
-5.044178	Administration's
-5.353464	jockeying
-4.2798285	advance
-5.353464	aid-to-education
-4.5119133	Rules
-4.701148	Tuesday,
-5.353464	uncertain.
-5.353464	panel's
-4.380549	depends
-5.1678615	Trimble,
-4.78841	Democrat
-5.353464	siding
-5.1678615	Rayburn's
-5.353464	Trimble
-4.5119133	Tuesday.
-5.353464	#LEADERSHIP
-4.088946	IS
-5.353464	HOPEFUL#
-4.8977313	encounter
-4.701148	conservative
-5.044178	leadership,
-5.1678615	sometime
-5.353464	$6,100,000,000
-4.088946	provides
-5.353464	forty-year
-5.353464	mortgages
-4.2508526	low
-5.353464	down-payments
-5.353464	moderate-income
-5.1678615	families.
-5.1678615	slums
-4.3108773	colleges
-5.353464	dormitories.
-4.2508526	appears
-4.8977313	temporarily
-5.353464	stalled
-4.78841	Northern
-3.9160433	usually
-5.353464	balking
-3.7553205	religious
-5.353464	controversy.
-5.1678615	Delaney
-5.1678615	Queens
-4.108696	Thomas
-5.1678615	O'Neill
-5.353464	#THREE
-5.353464	GROUPS
-5.353464	MEET#
-3.5990603	What
-4.2798285	quick
-4.3108773	progress
-5.353464	amending
-4.42008	Act
-4.566314	1958.
-5.1678615	long-term
-4.8977313	loans
-4.566314	parochial
-5.353464	private-school
-4.2798285	facilities
-4.78841	science,
-5.1678615	languages
-4.8977313	mathematics.
-5.353464	public-school
-5.353464	clears
-4.198126	About
-4.3108773	Peace
-4.78841	assigned
-4.5119133	agencies
-4.198126	carried
-4.701148	groups,
-5.353464	corps.
-5.353464	$40,000,000
-4.701148	submitted
-5.353464	$26,000,000
-5.044178	universities
-5.1678615	agencies.
-5.353464	Twelve
-5.353464	contract-negotiation
-4.463574	stage,
-4.701148	Gordon
-5.353464	Boyce,
-5.1678615	agencies,
-5.1678615	interview.
-5.044178	Six
-5.1678615	groups.
-5.044178	teaching,
-4.566314	Asia,
-4.6285195	Middle
-4.463574	America.
-5.353464	#QUESTION
-5.1678615	RAISED#
-5.353464	Interviews
-3.696762	church
-4.5119133	disclosed
-4.701148	confusion
-4.8977313	methods,
-5.1678615	goals.
-4.0017734	ways
-5.1678615	happen,
-5.044178	churchmen
-4.78841	example:
-3.9862578	month
-5.353464	Ghana
-4.8977313	missionary
-4.566314	discovered
-4.42008	hotel
-4.3443174	usual
-5.1678615	doubled.
-5.353464	protested,
-4.6285195	owner
-4.8977313	"Why
-5.353464	worry?
-3.8787882	U&
-3.7292519	S&
-4.034574	Government
-4.701148	pays
-4.8977313	overseas
-5.353464	workers".
-5.353464	#MISSIONARY
-5.353464	EXPLAINS#
-3.7046595	don't
-5.353464	Government",
-4.6285195	"I'm
-5.353464	missionary".
-5.353464	shrugged.
-5.353464	"Same
-3.9427826	then,
-5.1678615	remarked,
-4.78841	classical
-5.353464	church-state
-5.044178	problem:
-4.701148	Can
-5.1678615	separation
-5.353464	state?
-5.044178	Sargent
-5.1678615	Shriver
-5.1678615	corps,
-4.701148	can.
-3.7927074	No
-4.3108773	group,
-5.1678615	interview,
-5.353464	forswears
-5.353464	proselytizing
-5.353464	proposes.
-5.353464	_MOSCOW,
-5.044178	gay
-5.1678615	Sukarno
-5.044178	Indonesia,
-4.088946	Premier
-3.7127032	Khrushchev
-4.42008	pulled
-5.353464	beaming:
-5.353464	"Look,
-5.353464	had"!
-5.353464	jesting
-5.353464	expansive
-4.42008	mood
-4.034574	successful
-5.353464	banker.
-5.044178	Indonesia
-4.3443174	twenty
-5.1678615	under-developed
-4.8977313	Africa
-4.8977313	expanding
-4.6285195	economic,
-5.353464	uncommitted
-5.1678615	allocated
-5.353464	$1,000,000,000
-3.9032664	Western
-5.1678615	estimates.
-4.3443174	biggest
-3.9427826	beginning
-5.1678615	1954.
-3.9712772	1960
-5.353464	6,000
-4.78841	technicians
-4.6285195	countries.
-5.353464	_UNITED
-5.353464	NATIONS,
-4.108696	N&
-5.353464	Y&,
-4.6285195	experts
-4.566314	country's
-3.9427826	professional
-4.701148	Nations.
-5.1678615	amid
-5.353464	intensified
-4.0519524	role
-4.6285195	puts
-5.1678615	premium
-4.6285195	strength,
-4.566314	past,
-4.3108773	jobs
-5.353464	India.
-4.6285195	India
-4.2798285	Nations
-5.353464	400,000,000
-5.353464	inhabitants.
-4.701148	filling
-5.044178	Secretariat
-4.3443174	panel
-5.1678615	report.
-4.198126	completed
-5.044178	eighteen
-5.353464	#FORMULA
-5.353464	DUE
-5.353464	THIS
-5.353464	WEEK#
-5.353464	Administrative
-5.353464	Budgetary
-5.353464	Questions
-4.78841	understood
-5.353464	lines:
-4.6285195	_@_
-5.353464	ninety-nine
-5.353464	posts,
-4.5119133	affairs
-5.044178	officer,
-5.353464	economist,
-4.8977313	start.
-5.1678615	10,000,000
-5.1678615	150,000,000
-4.6285195	fifteen
-5.353464	posts.
-3.7292519	above
-5.353464	30,000,000
-5.353464	cut-off
-5.353464	_GENEVA,
-4.78841	forming
-4.8977313	unite
-5.353464	war-ridden
-5.044178	kingdom.
-4.0700555	decision
-5.353464	Zurich
-5.353464	Boun
-5.353464	Oum,
-4.566314	royal
-5.353464	Government;
-5.1678615	neutralists
-5.1678615	bloc,
-5.353464	Souphanouvong,
-4.8977313	pro-Communist
-4.701148	forces.
-4.108696	latter
-5.353464	half-brothers.
-4.5119133	joint
-4.78841	welcomed
-5.353464	delegations
-4.701148	nineteenth
-5.1678615	plenary
-5.353464	fourteen-nation
-4.151113	agreement
-5.353464	Princes
-4.463574	ease
-5.044178	task,
-5.353464	diplomats
-5.353464	conceded.
-5.044178	overly
-5.353464	optimistic.
-5.353464	#TACTICS
-5.353464	STUDIED
-3.8787882	IN
-5.353464	GENEVA#
-5.353464	Averell
-5.353464	Harriman
-5.1678615	Malcolm
-5.353464	MacDonald
-4.8977313	Britain,
-4.78841	Maurice
-5.353464	Couve
-5.353464	Murville,
-5.044178	France's
-5.353464	Minister,
-5.1678615	Green,
-5.353464	Canada's
-4.78841	Minister
-5.353464	External
-5.353464	Affairs,
-5.353464	concluded,
-5.1678615	meanwhile,
-4.129387	round
-5.353464	consultations
-4.701148	tactics
-4.463574	pace
-4.8977313	slowed
-5.044178	Princess
-5.353464	Moune,
-5.353464	Phouma's
-5.353464	Princes'
-5.1678615	statement.
-4.8977313	two-hour
-4.8977313	"an
-5.353464	cordial
-5.353464	relaxation",
-3.2437422	she
-5.353464	Laotians
-5.1678615	six-point
-5.1678615	agenda
-5.044178	talks,
-3.9427826	reached
-5.044178	#TO
-5.353464	DEAL
-4.463574	WITH
-5.353464	PRINCIPLES#
-5.044178	meetings
-5.353464	Zurich,
-4.2508526	principles
-4.6285195	guide
-4.108696	factors
-4.6285195	search
-5.1678615	Government.
-5.353464	Appointment
-4.8977313	Pfaff
-5.044178	41,
-4.78841	promotion
-4.3108773	manager
-5.353464	Times-Picayune
-5.353464	Publishing
-4.566314	Company
-3.929207	Saturday
-5.353464	Tims,
-4.6285195	company.
-4.8977313	succeeds
-5.044178	Burke,
-5.353464	resigned.
-3.8025796	company
-5.1678615	1946,
-4.463574	commercial
-4.2798285	artist
-4.3108773	advertising
-5.044178	department.
-4.198126	native
-4.78841	Orleans
-4.2798285	attended
-5.1678615	Elementary
-4.380549	school,
-5.353464	Fortier
-5.353464	Soule
-4.8977313	college.
-3.8908548	From
-5.353464	June,
-5.353464	1942,
-4.78841	December,
-5.353464	1945,
-4.2798285	Army
-4.3108773	Air
-4.8977313	Corps.
-4.2508526	Field
-5.353464	Belleville,
-5.353464	Ill&.
-5.044178	merchandising
-5.044178	wholesale
-4.78841	Orleans.
-5.353464	Audrey
-5.353464	Knecht
-5.353464	Karol,
-4.78841	13.
-5.353464	reside
-5.353464	4911
-5.044178	Miles
-5.353464	dr&.
-5.044178	_WASHINGTON_-
-5.044178	Thousands
-5.353464	bleacher-type
-4.6285195	seats
-4.5119133	erected
-4.463574	Pennsylvania
-4.5119133	Avenue
-5.1678615	inaugural
-4.566314	parade
-5.044178	20.
-5.1678615	Assuming
-4.380549	weather
-5.1678615	halfway
-5.1678615	decent
-4.198126	day,
-4.5119133	hundreds
-4.42008	mass
-5.1678615	thoroughfare
-5.044178	retiring
-4.566314	Dwight
-3.9862578	leave
-4.380549	Hill
-5.353464	oath-taking
-4.701148	ceremonies
-4.3443174	ride
-4.3443174	historic
-5.353464	ceremonial
-5.353464	route.
-4.6285195	Avenue,
-4.2798285	impressive
-4.2798285	street
-5.044178	Columbia
-5.353464	standpoint.
-5.044178	viewpoint
-4.198126	approach
-5.1678615	#MANY
-5.353464	BUILDINGS#
-4.5119133	Within
-4.701148	avenue
-4.8977313	government's
-4.701148	buildings,
-5.353464	shrines
-5.353464	monuments.
-3.8126814	Of
-3.6117425	course,
-5.353464	1600
-4.78841	Pennsylvania,
-3.9160433	famous
-3.8556166	world.
-4.088946	easy
-3.7553205	comes
-4.8977313	Constitution
-4.1739836	begins
-3.2549148	great
-4.3108773	block
-5.353464	seven-stories
-4.6285195	high.
-4.2798285	Great
-5.1678615	chapters
-4.3108773	recorded
-5.1678615	avenue,
-5.353464	169
-5.1678615	old.
-5.353464	1913
-4.2508526	thousand
-4.3108773	watch
-5.1678615	5000
-5.1678615	parade.
-5.353464	suffragettes
-5.044178	1920
-4.6285195	presidential
-5.353464	#SEATS
-4.380549	ON
-5.044178	SQUARE#
-4.8977313	marching
-4.463574	soldiers
-3.9427826	War
-4.8977313	Between
-4.566314	returning
-5.353464	1865
-5.353464	Archives
-4.2508526	valuable
-4.2236896	records
-5.353464	kept.
-4.3443174	Also
-4.198126	located
-5.353464	Edgar
-5.353464	Hoover
-5.353464	presides
-4.8977313	bureau
-5.1678615	investigation.
-4.0700555	Street
-3.7292519	car
-5.044178	tracks
-3.7208986	center
-5.353464	powered
-5.353464	underground.
-4.8977313	spectators
-5.044178	occupying
-4.8977313	vantage
-5.044178	bordering
-4.8977313	Lafayette
-4.78841	Square,
-4.3443174	opposite
-4.034574	square
-4.8977313	Andrew
-5.353464	Jackson,
-4.463574	hero
-5.044178	Battle
-5.353464	Moving
-5.044178	viewing
-4.5119133	Square
-4.2508526	40
-5.353464	units.
-5.1678615	16,000
-4.701148	branches
-4.78841	Division
-5.353464	academies.
-3.9567964	include
-5.1678615	representations
-4.42008	respective
-5.353464	Johnson.
-3.696762	Then
-4.42008	admission
-4.8977313	union.
-4.129387	headed
-5.353464	Marines
-5.1678615	states;
-5.1678615	Navy,
-5.044178	five,
-4.380549	Force
-4.6285195	states.
-5.353464	Guard,
-4.701148	reserve
-5.044178	Puerto
-5.353464	Rico,
-4.5119133	Virgin
-5.1678615	Islands,
-5.353464	Guam,
-5.353464	Samoa,
-4.42008	trust
-5.353464	territories
-5.353464	Canal
-5.353464	Zone.
-5.353464	_JACKSON,
-5.353464	MISS&_-
-4.78841	governmental
-5.044178	developments
-5.353464	Mississippi?
-5.353464	observing
-4.3443174	scene
-4.8977313	script
-5.1678615	gazing
-4.463574	future.
-4.088946	largely
-5.353464	unpredictability
-4.8977313	operates
-5.353464	helm
-5.353464	inhabitants-
-5.1678615	Ross
-5.353464	Barnett.
-5.044178	Barnett,
-4.8977313	administration,
-4.701148	surrounded
-4.5119133	keeps
-5.1678615	foes
-5.044178	guessing
-4.034574	friends
-4.2236896	well.
-5.353464	Consequently,
-4.566314	uncertain
-4.6285195	Barnett
-5.353464	#COULD
-5.1678615	BE
-5.353464	SCRAMBLE#
-4.78841	predict
-5.044178	settle
-4.463574	iron
-4.78841	rough
-4.380549	edges
-4.8977313	far.
-5.353464	builtin
-5.353464	headache
-4.701148	steady
-4.6285195	stream
-5.353464	job-seekers
-5.044178	commitments
-3.9862578	stage
-5.353464	eight-year
-5.353464	quest
-4.6285195	office.
-4.463574	decide
-4.78841	session,
-4.463574	throw
-5.353464	scramble.
-4.566314	Certainly
-5.044178	nobody
-5.044178	lawmakers
-4.2508526	enjoy
-5.1678615	re-enactment
-4.8977313	strange
-5.1678615	"honeymoon"
-4.5119133	session.
-3.9160433	doesn't
-4.198126	1961,
-4.5119133	decade
-4.78841	odds
-5.353464	#DISTRICTS
-5.353464	ISSUE#
-5.1678615	restless
-5.353464	(whether
-5.1678615	companionship
-5.353464	$22.50
-5.353464	diem
-5.353464	certain)
-3.6248062	start
-5.353464	agitating.
-5.1678615	withstand
-4.701148	pressure.
-4.380549	sensitive
-4.198126	cutting
-5.044178	districts
-5.1678615	seat.
-3.618225	With
-4.0519524	eyes
-5.1678615	focused
-5.1678615	district,
-4.8977313	Delta
-4.6285195	Congressman
-4.2236896	Smith
-4.78841	go,
-5.353464	redistricting
-5.353464	longstanding
-3.452029	power
-4.8977313	Legislature.
-5.1678615	Mississippi's
-5.353464	crossroads
-5.353464	Split
-4.6285195	badly
-4.2798285	equally
-4.5119133	divided
-5.1678615	camps
-5.353464	loyalists
-5.353464	independents,
-4.566314	Mississippi
-4.42008	currently
-5.353464	wreck.
-4.5119133	together.
-5.353464	#FUTURE
-5.353464	CLOUDED#
-5.353464	titular
-5.1678615	party,
-5.353464	reestablish
-5.353464	loyalist
-4.78841	ranks
-5.1678615	bypass
-5.353464	functionary.
-4.78841	patronage
-4.78841	normally
-4.151113	flow
-5.044178	solidarity
-4.2798285	Now,
-3.8126814	picture
-5.353464	clouded,
-4.8977313	~US
-5.353464	Sens&
-5.353464	Eastland
-5.353464	Stennis,
-4.151113	remained
-4.701148	loyal
-5.353464	ticket,
-4.8977313	status.
-5.044178	Reports
-4.6285195	probability
-5.1678615	stripped
-5.353464	flows
-5.353464	congressmen.
-5.353464	_BATON
-5.353464	ROUGE,
-5.353464	LA&_-
-5.353464	Jimmie
-4.6285195	theme
-3.8908548	peace
-4.8977313	harmony
-4.42008	severe
-5.353464	stresses.
-3.7927074	probably
-4.78841	segregation
-5.353464	troublesome
-4.701148	shortly
-5.353464	vexing
-5.353464	issue-
-5.1678615	finances
-4.701148	transition
-4.701148	progress,
-5.353464	hike
-4.034574	2
-4.701148	cent.
-5.353464	strategy,
-4.5119133	revenues
-4.6285195	dedicated
-5.353464	tardiness
-4.6285195	dedication
-4.701148	suspect
-4.3443174	related
-4.0017734	directly
-4.6285195	shortage
-4.78841	cash
-5.353464	segregation.
-5.353464	#LEGISLATORS
-5.353464	WEARY#
-4.6285195	Indeed,
-5.1678615	administration's
-4.78841	curious
-5.044178	contributing
-5.1678615	defeat.
-4.8977313	$28
-5.1678615	grant-in-aid
-4.6285195	effectiveness
-5.044178	clearing
-5.353464	inconsistencies
-3.7046595	play
-4.701148	determining
-5.1678615	muster
-4.2798285	Wednesday
-5.353464	reconvenes.
-5.353464	normalcy.
-5.353464	pass,
-3.8336186	hands
-5.044178	integration.
-4.8977313	terminate
-4.5119133	Actually,
-5.1678615	toss
-5.353464	towel
-4.8977313	anyway.
-5.353464	weary
-4.8977313	frustrated
-5.353464	so-far
-4.42008	losing
-4.701148	token
-4.1739836	sort
-3.7553205	thing
-5.353464	politicos
-4.78841	acknowledge
-5.1678615	publicly.
-4.8977313	convey
-4.701148	notion
-4.3108773	done,
-3.6248062	though
-5.353464	ineffectual.
-5.353464	#UNDERLYING
-5.353464	CONCERN#
-5.353464	Passage
-5.353464	transition.
-5.1678615	battle.
-4.78841	home,
-3.9712772	continued
-4.108696	extra
-4.42008	period.
-5.1678615	million,
-3.8787882	one.
-4.78841	unlikely
-5.1678615	conclusion,
-4.8977313	purposes.
-4.42008	perfect
-5.353464	consonance
-5.353464	administration-
-5.1678615	cash.
-4.8977313	acute
-4.129387	interesting
-5.353464	dilemma.
-3.8556166	Since
-5.353464	constitution
-5.044178	forbids
-4.6285195	introduction
-4.380549	expenses
-5.353464	inflate
-5.044178	estimates
-5.353464	revenues.
-5.353464	#CONSTANT
-5.353464	PROBLEM#
-5.353464	stab
-5.353464	raiser.
-4.463574	prospect
-4.2798285	spending
-5.044178	unpleasant
-5.1678615	governor.
-5.353464	avoid,
-4.566314	alternatives
-5.1678615	blocked
-4.78841	off,
-4.6285195	trim
-5.353464	arouse
-5.044178	squeezed
-5.353464	trims
-5.044178	exert
-3.8787882	pressure
-5.353464	receptive
-4.2508526	constant
-4.701148	confronting
-3.9567964	tried
-5.353464	economize.
-4.42008	Any
-5.1678615	revive
-5.353464	allegations
-4.701148	followers
-5.1678615	affiliations
-5.353464	imprudently
-4.3443174	themselves.
-5.353464	house-cleaning,
-5.353464	token,
-4.3108773	depending
-5.044178	developments,
-4.78841	combat
-5.353464	criticisms.
-5.044178	Alexander
-4.566314	Hemphill
-5.044178	bids
-5.353464	Frankford
-5.353464	Elevated
-5.1678615	rigged
-5.353464	contracting
-5.353464	track"
-5.353464	Estimates
-4.463574	city's
-4.129387	loss
-5.353464	$344,000
-3.7927074	job
-4.8977313	ranged
-5.353464	$200,000.
-5.353464	#'SHORTCUTS'
-5.353464	UNNOTICED#
-5.1678615	Steel
-5.353464	Erection
-5.044178	contracted
-5.353464	impossibly
-5.353464	"legitimate"
-4.6285195	competing
-5.353464	contractors.
-5.353464	"shortcuts"
-5.353464	anyway,
-5.353464	Controller's
-5.353464	rigging
-5.1678615	disclosures
-5.353464	Tuesday:
-4.463574	{The
-5.1678615	sued
-5.353464	$172,400
-4.8977313	covering
-5.1678615	contract.
-4.1739836	Philadelphia
-5.1678615	Transportation
-5.1678615	investigating
-3.8126814	played
-5.044178	reviewing
-5.353464	signature
-4.701148	Harold
-5.353464	Varani,
-5.1678615	architecture
-4.42008	engineering
-5.353464	Property,
-3.9862578	appeared
-5.353464	vouchers
-5.353464	certifying
-5.353464	Varani
-4.3108773	fired
-4.2798285	charges
-4.78841	accepting
-5.353464	contractor.
-5.353464	Managing
-4.8977313	Director
-4.6285195	Donald
-4.8977313	cooperate
-4.566314	sharp
-4.8977313	disagreement
-5.353464	matter}.
-5.044178	sue
-4.6285195	recovery
-4.78841	Berger
-4.151113	morning
-5.1678615	~PTC
-5.353464	completion
-4.42008	1959.
-5.353464	#CONCERN
-5.353464	BANKRUPT#
-5.353464	Consolidated
-5.353464	Industries,
-4.78841	Inc&,
-5.353464	3646
-5.353464	2d
-5.044178	st&,
-5.1678615	reorganization
-4.8977313	bankruptcy
-5.353464	bankrupt
-4.701148	directors
-4.3108773	draw
-5.353464	reorganization.
-4.701148	Business
-5.353464	Crumlish,
-5.353464	#INTERVENES
-5.044178	CASE#
-4.701148	Common
-5.353464	Pleas
-5.353464	bonding
-4.78841	firms.
-5.353464	Travelers
-5.353464	Indemnity
-4.5119133	Continental
-5.353464	Casualty
-4.8977313	Co&.
-5.1678615	Berger's
-4.566314	direction,
-5.353464	intervened
-4.78841	preliminary
-5.044178	filing
-4.0519524	claim
-4.1739836	there.
-4.380549	contract
-5.353464	violated",
-5.353464	violations
-4.566314	involve
-5.353464	rehabilitation
-4.3443174	expansion
-4.78841	joints
-5.1678615	overhauling
-5.353464	102
-5.044178	joints.
-5.353464	75,
-5.353464	repaired,
-5.353464	charged.
-5.353464	#WIDE
-5.353464	RANGE
-5.353464	BIDS#
-5.1678615	repairs
-4.8977313	$500
-4.8977313	joint.
-5.353464	Belanger
-5.1678615	Sons
-5.1678615	Cambridge,
-4.8977313	$600
-4.2236896	But,
-5.353464	contractors
-5.353464	$2400
-5.353464	$3100
-5.353464	$37,500
-4.0700555	won't
-5.353464	report",
-5.353464	bond",
-5.353464	"Can't
-5.353464	headline:
-5.353464	'City
-5.353464	Hooked
-5.353464	$172,000'"?
-5.353464	#'KNOW
-5.353464	ENOUGH
-5.353464	SUE'#
-5.353464	amount".
-4.463574	Douglas
-5.1678615	Pratt,
-5.353464	~PTC,
-5.353464	transit
-5.353464	El.
-4.8977313	Pratt
-5.353464	"Certain
-3.6382751	whole
-5.353464	matter",
-4.2798285	Samuel
-5.353464	Goodis,
-5.044178	objected
-5.044178	fees,
-5.1678615	occupancy
-4.3443174	rates
-4.701148	hotels
-4.78841	48
-4.701148	percent
-5.044178	Goodis
-4.78841	objection
-5.1678615	Council's
-5.044178	Finance
-5.353464	1000
-5.1678615	rooms,
-4.701148	fee
-5.353464	$5000
-5.353464	#TESTIFIES
-4.6285195	AT
-5.353464	HEARING#
-4.8977313	testimony
-3.9567964	wide
-5.353464	licenses,
-4.701148	services.
-4.3443174	raise
-5.353464	$740,000
-5.353464	$2,330,000
-4.463574	that.
-5.044178	rooming
-4.701148	houses,
-5.353464	multi-family
-5.1678615	dwellings
-5.044178	$5
-4.566314	room.
-5.1678615	$2,
-4.8977313	renewal
-5.353464	$1.
-3.8908548	single
-4.701148	rooms
-4.108696	account
-5.044178	95
-5.353464	accomodations
-5.1678615	hotels.
-5.353464	#REVENUE
-5.353464	ESTIMATED#
-4.6285195	house,
-4.566314	apartment
-5.353464	$457,000
-4.6285195	Leonard
-5.353464	Kaplan,
-4.78841	Home
-5.1678615	Builders
-5.353464	Philadelphia,
-4.5119133	behalf
-4.2798285	association
-4.42008	operate
-5.044178	houses.
-4.0519524	dog
-4.5119133	drew
-5.353464	Councilwoman
-4.42008	Virginia
-5.353464	Knauer,
-4.3108773	formerly
-5.353464	pedigreed
-5.044178	dogs.
-4.78841	$1
-5.1678615	males
-5.1678615	$2
-5.353464	females
-4.2236896	flat
-5.044178	dog.
-5.353464	#COMMISSIONER
-5.353464	REPLIES#
-5.353464	Knauer
-4.3443174	owners
-5.1678615	penalized
-4.3108773	animal
-5.1678615	Deputy
-5.353464	Leary
-4.8977313	spends
-5.353464	$115,000
-5.044178	annually
-5.1678615	regulate
-4.3108773	dogs
-5.1678615	collects
-5.353464	$43,000
-5.1678615	fees.
-5.353464	$67,000
-5.353464	S&P&C&A&;
-5.044178	$15,000
-5.353464	catchers
-5.353464	bites.
-5.353464	#BACKS
-5.353464	HIGHER
-5.353464	FEES#
-5.1678615	McConnell
-5.353464	indorsed
-4.108696	which,
-4.8977313	adequately
-5.1678615	compensated
-4.3443174	schedule
-5.353464	Licenses
-5.353464	Inspections
-5.353464	Barnet
-5.353464	Lieberman
-4.6285195	Eugene
-5.353464	Gillis.
-5.353464	Petitions
-4.8977313	jail
-5.353464	Norristown
-4.8977313	Julian
-5.1678615	Barnard
-4.3108773	Montgomery
-5.353464	Horace
-5.353464	Davenport,
-5.353464	counsel
-4.78841	widow
-4.380549	killed
-5.353464	Barnard's
-5.1678615	hit-run
-4.6285195	car.
-5.353464	Dannehower,
-5.353464	Davenport
-5.353464	Barnard,
-4.8977313	pleaded
-5.1678615	manslaughter
-5.1678615	charges,
-5.1678615	fined
-4.5119133	Warren
-4.6285195	K&
-5.353464	Hess,
-5.044178	years'
-4.78841	probation
-4.0519524	drive
-4.2236896	driving
-4.8977313	sentence
-4.8977313	pronounced
-5.353464	warning.
-5.353464	Victim
-4.566314	accident
-4.566314	Lee
-5.353464	Stansbery,
-5.353464	39.
-5.353464	reprimanded
-5.1678615	violating
-5.1678615	probation.
-4.8977313	Planning
-4.2508526	Commission
-4.8977313	agreements
-5.353464	redevelopers
-5.044178	Redevelopment
-5.353464	$300,000,000
-4.78841	Eastwick
-5.1678615	Area
-4.3443174	novel
-5.044178	hazards
-5.1678615	pedestrians
-5.044178	Corp&
-5.353464	1311
-5.1678615	acre
-4.701148	tract
-5.353464	$12,192,865.
-5.353464	bounded
-4.8977313	ave&,
-5.353464	Dicks
-5.353464	61st
-5.353464	ave&.
-5.1678615	#FOUR
-5.353464	PARKS
-5.353464	PLANNED#
-4.701148	designated
-5.1678615	Stage
-5.044178	Residential
-5.353464	Authority's
-4.198126	master
-4.566314	feature
-4.380549	row
-4.5119133	garden
-4.8977313	apartments,
-5.044178	parks,
-5.1678615	churches,
-5.353464	clusters
-5.353464	stores.
-4.566314	corporation
-4.42008	formed
-4.8977313	Reynolds
-5.353464	Metal
-5.353464	builder,
-3.4843872	second
-5.353464	520-acre
-4.701148	west
-5.1678615	Corp&,
-5.1678615	builders,
-4.6285195	developing
-5.353464	#WOULD
-5.353464	BAR
-5.353464	VEHICLES#
-5.353464	Constantinos
-5.353464	Doxiadis,
-5.353464	Reconstruction
-5.1678615	Greece
-5.1678615	planner
-4.8977313	Corp&.
-4.3443174	16
-5.044178	sectors
-5.1678615	barred
-5.353464	vehicular
-4.78841	traffic.
-5.353464	landscaped
-5.353464	walkways
-5.044178	esplanade
-3.7377687	entire
-5.353464	two-and-a-half-mile
-4.198126	length
-5.1678615	eliminates
-5.353464	Grovers
-4.2798285	ran
-5.1678615	pedestrian
-4.463574	bridges
-5.353464	_KANSAS
-5.353464	CITY,
-5.353464	MO&,
-4.42008	9
-4.8977313	(~UPI)_-
-4.2236896	Kansas
-4.129387	International
-5.1678615	Fighters
-5.353464	severly
-4.701148	injured
-4.3108773	bomb
-5.353464	tore
-4.3443174	apart
-5.353464	Battalion
-5.353464	Stanton
-5.353464	Gladden,
-5.1678615	42,
-4.1739836	figure
-5.1678615	representation
-5.044178	fighters
-5.044178	teamsters
-4.701148	union,
-4.380549	suffered
-5.044178	multiple
-5.353464	fractures
-5.1678615	ankles.
-4.566314	Baptist
-4.2798285	Memorial
-5.353464	#IGNITION
-5.353464	SETS
-5.1678615	OFF
-5.353464	BLAST#
-5.353464	battalion
-5.1678615	driveway
-5.353464	"I'd
-5.353464	ignition
-5.044178	flash
-4.701148	lying
-5.353464	driveway",
-5.1678615	Gladden's
-5.353464	sons,
-4.8977313	John,
-4.6285195	17,
-5.353464	Jim,
-4.8977313	13,
-4.380549	house.
-4.701148	younger
-4.088946	boy
-4.78841	blast
-4.566314	knocked
-4.380549	bed
-5.044178	wall.
-5.353464	#HOOD
-5.353464	FLIES
-4.78841	OVER
-5.353464	HOUSE#
-5.044178	hood
-4.566314	flying
-4.701148	roof
-3.9862578	front
-4.8977313	wheel
-5.1678615	landed
-4.701148	away.
-5.044178	laboratory
-4.566314	explosive
-5.353464	device,
-4.463574	containing
